
\data\
ngram 1=15036
ngram 2=37802
ngram 3=40115

\1-grams:
-0.776689	</s>
-99	<s>	-0.7032748
-4.514869	B	-0.03791831
-4.514869	F	-0.03791831
-4.514869	I	-0.03791831
-4.514869	R	-0.03791831
-4.514869	T	-0.03791831
-4.514869	U	-0.03791831
-4.023327	V	-0.03791831
-4.346582	W	-0.07631602
-4.514869	X	-0.03791831
-4.514869	\	-0.03791831
-4.514869	]	-0.03791831
-4.165472	^	-0.1666672
-4.514869	}	-0.03791831
-4.165472	~	-0.03791831
-4.514869		-0.03791831
-4.514869		-0.03791831
-4.514869		-0.03791831
-4.346582		-0.03791831
-4.346582		-0.1904466
-4.514869		-0.03791831
-4.023327		-0.1842843
-4.346582		-0.1334421
-4.514869		-0.03791831
-4.514869		-0.03791831
-4.514869		-0.03791831
-4.514869		-0.03791831
-4.514869		-0.03791831
-4.514869		-0.03791831
-4.514869		-0.03791831
-4.514869		-0.03791831
-4.346582		-0.03791831
-4.514869		-0.03791831
-4.514869		-0.03791831
-4.514869		-0.03791831
-4.514869		-0.03791831
-3.357864		-0.06092874
-4.514869		-0.03791831
-4.514869		-0.03791831
-4.514869		-0.03791831
-4.514869		-0.03791831
-4.514869		-0.03791831
-4.514869		-0.03791831
-4.514869		-0.03791831
-4.514869		-0.03791831
-4.514869		-0.03791831
-4.346582		-0.03791831
-4.023327		-0.0599025
-4.514869		-0.03791831
-4.514869		-0.03791831
-4.514869		-0.03791831
-4.346582		-0.0379183
-4.514869		-0.03791831
-4.514869		-0.03791831
-4.514869		-0.03791831
-4.514869		-0.03791831
-4.514869		-0.03791831
-4.514869		-0.03791831
-4.514869		-0.03791831
-4.514869		-0.03791831
-4.514869	髻	-0.03791831
-4.514869		-0.03791831
-4.514869		-0.03791831
-4.514869	G	-0.03791831
-4.514869	M	-0.03791831
-4.514869	O	-0.03791831
-4.514869	V	-0.03791831
-4.514869	a	-0.03791831
-4.514869	c	-0.03791831
-4.514869	h	-0.03791831
-4.514869	l	-0.03791831
-4.514869	u	-0.03791831
-4.514869		-0.03791831
-4.514869		-0.03791831
-4.346582		-0.1075204
-4.514869		-0.03791831
-4.514869		-0.03791831
-4.514869		-0.03791831
-4.514869		-0.03791831
-4.514869		-0.03791831
-4.514869		-0.03791831
-4.514869		-0.03791831
-4.514869		-0.03791831
-4.514869		-0.03791831
-4.514869		-0.03791831
-4.514869		-0.03791831
-4.514869		-0.03791831
-4.346582		-0.03791831
-4.514869		-0.03791831
-4.514869		-0.03791831
-4.514869		-0.03791831
-4.514869		-0.03791831
-4.514869		-0.03791831
-4.514869		-0.03791831
-4.514869		-0.03791831
-4.514869		-0.03791831
-4.514869		-0.03791831
-4.514869	k人	-0.03791831
-4.514869	v	-0.03791831
-4.514869	v尼	-0.03791831
-4.346582		-0.03791831
-4.514869		-0.03791831
-4.514869		-0.03791831
-4.514869		-0.03791831
-3.916411		-0.09267896
-4.514869		-0.03791831
-4.346582		-0.03791831
-4.514869		-0.03791831
-3.916411		-0.1842843
-4.346582		-0.03791831
-3.916411		-0.05817132
-4.514869		-0.0379183
-4.514869		-0.03791831
-4.514869		-0.0379183
-3.6439		-0.04456493
-4.514869		-0.03791831
-4.346582		-0.1184408
-4.514869		-0.03791831
-4.514869		-0.0379183
-4.514869		-0.03791831
-4.514869		-0.03791831
-4.514869		-0.0379183
-4.514869		-0.03791831
-4.514869		-0.03791831
-4.514869		-0.03791831
-4.514869		-0.03791831
-4.514869		-0.03791831
-4.514869		-0.03791831
-4.346582		-0.03791831
-4.514869		-0.03791831
-4.514869		-0.03791831
-4.346582		-0.1075204
-4.165472	I	-0.03791831
-4.514869	M	-0.03791831
-4.514869	i	-0.03791831
-4.514869		-0.0379183
-4.514869		-0.03791831
-4.514869		-0.03791831
-4.514869		-0.03791831
-4.514869		-0.03791831
-4.514869		-0.03791831
-4.514869		-0.03791831
-4.514869		-0.03791831
-4.514869		-0.03791831
-4.514869		-0.03791831
-4.514869		-0.03791831
-4.514869		-0.03791831
-4.514869		-0.03791831
-4.514869		-0.03791831
-4.346582		-0.03791831
-4.514869		-0.03791831
-4.346582		-0.03791831
-4.514869		-0.03791831
-4.514869		-0.03791831
-4.514869		-0.03791831
-4.514869		-0.03791831
-4.514869	D	-0.03791831
-4.514869	D夜	-0.03791831
-4.514869	E天	-0.03791831
-4.514869	H	-0.03791831
-4.514869	K	-0.03791831
-4.514869	N	-0.03791831
-3.513712	O	-0.1013147
-4.514869	P	-0.03791831
-4.514869	Y	-0.03791831
-4.514869	e	-0.03791831
-4.514869	y	-0.03791831
-4.514869		-0.03791831
-4.514869		-0.03791831
-4.514869		-0.03791831
-4.346582		-0.1553544
-4.514869		-0.03791831
-4.514869		-0.03791831
-4.514869		-0.03791831
-4.514869		-0.03791831
-4.514869		-0.03791831
-4.514869		-0.03791831
-4.514869		-0.03791831
-4.514869		-0.03791831
-4.514869		-0.03791831
-4.514869		-0.03791831
-4.514869	ㄠ	-0.03791831
-4.514869		-0.03791831
-4.023327		-0.1851593
-4.346582	嗦	-0.03791831
-4.165472		-0.07631601
-4.023327		-0.03791831
-4.514869		-0.03791831
-4.514869		-0.03791831
-4.346582		-0.03791831
-4.514869		-0.03791831
-4.514869		-0.0379183
-4.514869		-0.03791831
-4.514869		-0.03791831
-4.514869		-0.03791831
-4.514869		-0.0379183
-4.514869		-0.03791831
-4.514869		-0.03791831
-4.514869		-0.03791831
-4.514869		-0.03791831
-4.514869		-0.03791831
-4.165472		-0.05669295
-4.514869		-0.03791831
-4.514869		-0.03791831
-4.514869		-0.03791831
-4.165472		-0.09267895
-4.165472		-0.067485
-4.346582		-0.03791831
-4.346582		-0.0379183
-4.514869		-0.03791831
-4.514869		-0.03791831
-4.514869		-0.03791831
-4.514869		-0.03791831
-4.514869		-0.03791831
-3.759123		-0.04792676
-3.552926	N	-0.1007114
-4.514869	N啵N啵	-0.03791831
-3.830685	S	-0.0713265
-4.514869	U	-0.03791831
-4.165472	f	-0.2814026
-4.514869	h	-0.03791831
-4.346582	m	-0.03791831
-4.514869	x	-0.03791831
-4.514869	y	-0.03791831
-4.346582		-0.0379183
-4.514869		-0.03791831
-4.346582		-0.1334421
-4.346582		-0.1904466
-4.514869		-0.0379183
-4.346582		-0.03791831
-4.514869		-0.03791831
-4.346582		-0.03791831
-4.514869		-0.03791831
-4.165472		-0.03791831
-4.514869		-0.03791831
-4.514869		-0.03791831
-4.514869		-0.03791831
-4.514869		-0.03791831
-4.514869		-0.03791831
-4.514869		-0.03791831
-4.514869		-0.03791831
-4.514869		-0.03791831
-4.514869		-0.03791831
-4.514869		-0.03791831
-4.346582		-0.1904466
-4.165472		-0.07941522
-4.514869		-0.03791831
-3.830685		-0.2180975
-4.514869		-0.03791831
-4.514869		-0.03791831
-4.346582		-0.1075204
-4.514869		-0.03791831
-3.759123		-0.0718722
-4.346582		-0.05817133
-4.514869	逵猩	-0.03791831
-4.514869	灏	-0.03791831
-4.514869	迦迨	-0.03791831
-4.514869	逄郎	-0.03791831
-4.514869	逋	-0.03791831
-4.514869	遄	-0.03791831
-4.346582		-0.03791831
-4.514869		-0.03791831
-4.514869		-0.03791831
-4.514869		-0.03791831
-4.514869		-0.03791831
-4.346582		-0.1334421
-4.514869		-0.03791831
-4.514869		-0.03791831
-4.514869		-0.03791831
-4.514869		-0.03791831
-4.514869		-0.03791831
-4.514869	山	-0.03791831
-4.514869		-0.03791831
-4.514869	G	-0.03791831
-4.514869	J	-0.03791831
-4.514869	R	-0.03791831
-4.514869	c	-0.03791831
-4.514869	t	-0.03791831
-4.514869		-0.03791831
-4.346582		-0.03791831
-4.514869		-0.03791831
-4.514869		-0.03791831
-4.514869		-0.03791831
-4.346582		-0.03791831
-4.514869		-0.03791831
-4.514869		-0.03791831
-4.514869	桥区	-0.03791831
-4.514869	桥区政府	-0.03791831
-4.514869		-0.03791831
-4.514869		-0.03791831
-4.514869		-0.03791831
-4.514869		-0.03791831
-4.514869		-0.03791831
-4.514869		-0.03791831
-4.514869		-0.03791831
-4.514869		-0.03791831
-4.514869	市	-0.03791831
-4.514869	雅人	-0.0379183
-4.514869	城镇	-0.03791831
-4.514869	H	-0.03791831
-4.514869	c	-0.03791831
-4.514869		-0.03791831
-4.514869		-0.03791831
-4.514869		-0.0379183
-4.514869		-0.03791831
-4.514869		-0.03791831
-4.514869		-0.03791831
-4.514869		-0.03791831
-4.514869		-0.03791831
-4.514869		-0.03791831
-4.346582		-0.03791831
-4.514869		-0.03791831
-4.514869		-0.0379183
-4.514869		-0.0379183
-4.514869		-0.03791831
-4.514869		-0.0379183
-4.514869		-0.03791831
-4.514869		-0.03791831
-4.514869		-0.03791831
-4.514869	H	-0.03791831
-4.514869	r	-0.03791831
-4.514869		-0.03791831
-4.514869		-0.03791831
-4.514869		-0.03791831
-4.514869		-0.03791831
-4.514869		-0.03791831
-4.514869		-0.03791831
-4.514869		-0.0379183
-4.514869		-0.0379183
-4.514869		-0.03791831
-4.514869		-0.03791831
-4.514869		-0.03791831
-4.514869		-0.03791831
-4.346582		-0.0379183
-4.514869		-0.03791831
-4.514869	神	-0.03791831
-4.514869		-0.03791831
-4.514869		-0.03791831
-4.514869		-0.03791831
-4.514869		-0.03791831
-4.514869		-0.03791831
-4.514869		-0.03791831
-4.514869		-0.03791831
-4.514869		-0.03791831
-4.514869		-0.03791831
-4.514869		-0.03791831
-4.514869		-0.03791831
-4.514869		-0.03791831
-4.514869		-0.03791831
-4.514869		-0.03791831
-4.514869		-0.03791831
-4.514869		-0.03791831
-4.514869		-0.03791831
-4.514869		-0.03791831
-4.514869		-0.03791831
-4.514869		-0.03791831
-4.514869	N	-0.03791831
-4.346582	O	-0.03791831
-4.514869	Q	-0.03791831
-4.346582	S	-0.03791831
-4.514869	i	-0.03791831
-4.514869	o	-0.03791831
-4.023327	q	-0.1075204
-4.514869		-0.03791831
-4.346582		-0.03791831
-4.514869		-0.03791831
-4.514869		-0.0379183
-4.165472		-0.03791831
-4.514869		-0.03791831
-4.514869		-0.03791831
-4.514869		-0.03791831
-4.346582		-0.1334421
-4.346582		-0.0379183
-4.514869		-0.03791831
-4.514869		-0.03791831
-4.514869		-0.03791831
-4.514869		-0.03791831
-4.514869		-0.0379183
-4.514869		-0.03791831
-4.346582		-0.03791831
-4.514869		-0.03791831
-4.514869	H	-0.03791831
-4.514869	I	-0.03791831
-4.514869	_	-0.03791831
-4.514869	e	-0.03791831
-4.514869	g	-0.03791831
-4.514869	u	-0.03791831
-4.346582		-0.03791831
-4.514869		-0.03791831
-4.514869		-0.03791831
-4.514869		-0.03791831
-4.346582		-0.09267896
-4.514869		-0.03791831
-4.514869		-0.03791831
-4.346582		-0.03791831
-4.346582		-0.03791831
-4.514869		-0.03791831
-4.346582		-0.1334421
-4.165472		-0.03791831
-4.023327		-0.0379183
-4.514869		-0.03791831
-4.514869		-0.03791831
-3.916411		-0.05817133
-4.514869		-0.03791831
-4.514869		-0.03791831
-4.514869		-0.03791831
-4.514869		-0.0379183
-4.514869		-0.03791831
-3.759123		-0.08104986
-4.514869	疟了	-0.03791831
-4.346582	拍	-0.07631602
-3.6439	潘	-0.04046017
-4.514869	潘康哪嫦	-0.03791831
-4.514869	潘康纳活	-0.03791831
-4.514869	潘烤济学	-0.03791831
-4.514869	潘磕堑闶	-0.03791831
-4.514869	潘磕	-0.03791831
-4.514869	潘磕惺	-0.03791831
-4.514869	潘磕嫦	-0.03791831
-4.346582	潘颗	-0.03791831
-4.514869	潘颗神	-0.03791831
-4.514869	潘咳占	-0.03791831
-4.514869		-0.03791831
-4.514869		-0.03791831
-4.514869		-0.03791831
-4.346582		-0.03791831
-4.514869		-0.03791831
-3.916411		-0.04720418
-4.514869		-0.03791831
-4.514869		-0.03791831
-4.514869	山	-0.03791831
-4.514869		-0.03791831
-4.514869	M	-0.03791831
-4.514869	U	-0.03791831
-4.165472	k	-0.03791831
-4.514869	o	-0.03791831
-4.514869	~山	-0.03791831
-4.514869	~山丹霞地貌	-0.03791831
-4.514869		-0.03791831
-4.514869		-0.03791831
-4.514869		-0.03791831
-4.514869		-0.03791831
-4.514869		-0.03791831
-4.514869	酷山	-0.03791831
-4.514869		-0.03791831
-4.514869		-0.03791831
-4.514869		-0.03791831
-4.514869		-0.03791831
-4.514869		-0.03791831
-4.514869		-0.0379183
-4.514869		-0.03791831
-4.346582	U	-0.03791831
-4.514869	f岩	-0.03791831
-4.346582	w	-0.03791831
-4.346582	~	-0.03791831
-4.514869		-0.03791831
-4.165472		-0.03791831
-4.514869		-0.0379183
-4.514869		-0.03791831
-4.514869		-0.03791831
-4.346582		-0.1075204
-4.514869		-0.0379183
-4.514869		-0.03791831
-4.514869		-0.03791831
-4.514869		-0.03791831
-4.165472		-0.0379183
-4.514869		-0.03791831
-4.514869		-0.03791831
-4.514869		-0.03791831
-4.514869	C	-0.03791831
-4.514869	C肉精	-0.03791831
-4.514869	L	-0.03791831
-4.514869	e	-0.03791831
-4.514869	h	-0.03791831
-4.514869	o	-0.03791831
-4.514869	y	-0.03791832
-4.514869	港镇	-0.03791831
-4.514869		-0.03791831
-4.514869		-0.03791831
-4.514869		-0.03791831
-4.514869		-0.03791831
-4.346582		-0.03791831
-4.514869		-0.03791831
-4.514869		-0.03791831
-4.514869		-0.03791831
-4.514869		-0.03791831
-4.514869		-0.03791831
-4.514869		-0.03791831
-4.514869		-0.03791831
-4.514869		-0.03791831
-4.514869		-0.03791831
-4.514869		-0.03791831
-4.346582		-0.05541574
-4.514869		-0.03791831
-4.514869		-0.03791831
-4.514869		-0.03791831
-4.514869		-0.03791831
-4.514869		-0.0379183
-4.514869		-0.03791831
-4.514869		-0.03791831
-4.514869		-0.03791831
-4.346582	G	-0.03791831
-4.514869	M	-0.03791831
-4.514869	Q	-0.03791831
-4.023327	S	-0.05541573
-4.514869	[	-0.03791831
-4.023327	h	-0.1075204
-4.514869	s	-0.03791831
-4.514869	{	-0.03791831
-4.514869		-0.03791831
-4.514869		-0.03791831
-4.514869		-0.03791831
-4.514869		-0.03791831
-4.514869		-0.03791831
-4.514869		-0.03791831
-4.514869		-0.03791831
-4.346582		-0.03791831
-4.514869		-0.03791831
-4.165472		-0.2814026
-4.514869		-0.03791831
-4.514869		-0.03791831
-4.514869		-0.03791831
-4.514869		-0.03791831
-4.514869		-0.03791831
-4.514869		-0.03791831
-4.514869		-0.03791831
-4.514869		-0.03791831
-4.514869		-0.03791831
-4.514869		-0.03791831
-4.514869		-0.03791831
-4.514869		-0.03791831
-4.514869		-0.03791831
-4.514869		-0.03791831
-4.514869		-0.03791831
-4.514869		-0.03791831
-4.514869		-0.03791831
-4.346582		-0.03791831
-4.514869		-0.03791831
-4.514869	G	-0.03791831
-4.514869	S	-0.03791831
-4.514869	[	-0.03791831
-4.514869	_	-0.03791831
-4.346582	j	-0.03791831
-4.514869	t	-0.03791831
-4.514869		-0.03791831
-4.514869		-0.03791831
-4.514869		-0.03791831
-4.514869		-0.03791831
-4.514869		-0.03791831
-4.514869		-0.03791831
-4.514869		-0.0379183
-4.514869		-0.03791831
-4.514869		-0.03791831
-4.514869		-0.03791831
-4.514869		-0.03791831
-4.514869		-0.03791831
-4.514869		-0.03791831
-4.514869		-0.03791831
-4.514869		-0.03791831
-4.514869		-0.0379183
-4.514869		-0.03791831
-4.514869		-0.03791831
-4.514869		-0.0379183
-4.514869		-0.03791831
-4.346582		-0.0379183
-4.514869		-0.0379183
-4.346582		-0.03791831
-4.514869		-0.03791831
-4.346582		-0.03791831
-4.514869		-0.03791831
-4.514869		-0.03791831
-4.514869		-0.03791831
-4.514869	M	-0.03791831
-4.514869	Q	-0.03791831
-4.514869	W	-0.03791831
-4.514869	_	-0.03791831
-4.346582	`	-0.03791831
-4.514869	e	-0.03791831
-4.514869		-0.03791831
-4.514869		-0.03791831
-4.514869		-0.03791831
-4.514869		-0.03791831
-4.514869		-0.03791831
-4.514869		-0.03791831
-4.514869		-0.03791831
-4.514869		-0.03791831
-4.346582		-0.03791831
-4.514869		-0.03791831
-4.514869		-0.03791831
-4.346582		-0.03791831
-4.514869	意	-0.03791831
-4.514869		-0.03791831
-4.514869		-0.03791831
-4.514869		-0.03791831
-4.514869		-0.03791831
-4.514869		-0.03791831
-4.514869		-0.03791831
-4.514869		-0.03791831
-4.514869		-0.03791831
-4.514869		-0.03791831
-4.514869		-0.03791831
-4.514869		-0.03791831
-4.514869	e	-0.03791831
-4.514869	h	-0.03791831
-4.346582		-0.1334421
-4.514869		-0.03791831
-4.346582		-0.03791831
-4.514869		-0.03791831
-4.514869		-0.03791831
-4.514869		-0.03791831
-4.514869		-0.03791831
-4.514869		-0.0379183
-4.514869	c	-0.03791831
-4.514869		-0.03791831
-4.514869		-0.03791831
-4.514869		-0.03791831
-4.514869		-0.03791831
-4.346582		-0.03791831
-4.514869		-0.03791831
-4.514869		-0.03791831
-4.514869		-0.03791831
-4.514869		-0.03791831
-4.514869		-0.03791831
-4.514869		-0.03791831
-4.514869		-0.03791831
-4.514869		-0.03791831
-4.514869		-0.03791831
-4.514869		-0.03791831
-4.514869		-0.03791831
-4.514869		-0.03791831
-4.514869		-0.03791831
-4.514869		-0.03791831
-4.514869		-0.03791831
-3.916411	A	-0.03791831
-4.514869	D	-0.03791831
-4.514869	I	-0.03791831
-4.514869	J	-0.03791831
-4.346582	N	-0.03791831
-4.514869	Q	-0.03791831
-4.514869	R	-0.03791831
-4.514869	S	-0.03791831
-4.514869	[	-0.03791831
-4.514869	_	-0.03791831
-4.346582	g	-0.03791831
-4.514869	q	-0.03791831
-4.514869	w	-0.03791831
-4.514869	~	-0.03791831
-4.514869		-0.03791831
-4.514869		-0.03791831
-4.514869		-0.03791831
-4.514869		-0.03791831
-4.346582		-0.03791831
-4.514869		-0.03791831
-4.514869		-0.03791831
-4.514869		-0.03791831
-4.514869		-0.03791831
-4.514869		-0.03791831
-4.514869		-0.0379183
-4.514869		-0.03791831
-4.514869		-0.03791831
-4.514869		-0.03791831
-4.514869		-0.03791831
-4.514869		-0.03791831
-4.514869		-0.03791831
-4.514869		-0.03791831
-4.514869		-0.03791831
-4.514869		-0.03791831
-4.514869		-0.03791831
-4.514869		-0.03791831
-4.514869		-0.0379183
-4.514869		-0.03791831
-4.514869		-0.03791831
-4.514869		-0.03791831
-4.514869		-0.03791831
-4.514869		-0.03791831
-4.514869		-0.0379183
-4.514869		-0.03791831
-4.514869		-0.03791831
-4.514869	圭贤	-0.03791831
-4.514869		-0.03791831
-4.514869		-0.03791831
-4.514869	I	-0.03791831
-4.165472	L	-0.03791831
-4.514869	R	-0.03791831
-4.165472	Z	-0.03791831
-4.514869	x	-0.03791831
-4.514869	y	-0.03791831
-4.165472		-0.03791831
-4.514869		-0.03791831
-4.514869		-0.03791831
-4.514869		-0.03791831
-4.514869		-0.03791831
-4.514869	⒑闭	-0.03791831
-4.514869		-0.03791831
-4.514869		-0.0379183
-4.514869	艾美	-0.03791831
-4.514869		-0.03791831
-4.514869		-0.03791831
-4.514869		-0.03791831
-4.165472		-0.09267896
-4.514869		-0.03791831
-4.514869		-0.03791831
-4.514869		-0.03791831
-4.514869		-0.03791831
-4.514869		-0.03791831
-4.514869	兆	-0.03791831
-4.514869		-0.03791831
-4.514869		-0.03791831
-4.514869		-0.0379183
-4.514869		-0.03791831
-4.514869		-0.03791831
-4.514869		-0.03791831
-4.514869	@	-0.03791831
-4.514869	y	-0.03791831
-4.514869		-0.03791831
-4.514869		-0.03791831
-4.514869		-0.03791831
-4.514869		-0.0379183
-4.514869		-0.03791831
-4.514869		-0.03791831
-4.514869		-0.03791831
-4.514869		-0.03791831
-4.514869		-0.03791831
-4.514869		-0.03791831
-4.514869		-0.03791831
-4.514869		-0.03791831
-4.514869		-0.03791831
-4.165472		-0.0379183
-4.514869	G祈	-0.03791831
-4.346582	S	-0.03791831
-4.514869	\	-0.03791831
-4.514869		-0.03791831
-4.514869		-0.03791831
-4.514869		-0.03791831
-4.165472		-0.1075204
-4.346582		-0.1334421
-4.514869		-0.03791831
-4.514869		-0.03791831
-4.346582		-0.1904466
-4.514869		-0.03791831
-4.514869		-0.03791831
-4.514869	|	-0.03791831
-4.514869		-0.03791831
-4.514869		-0.03791831
-4.514869		-0.03791831
-4.514869		-0.03791831
-4.514869		-0.03791831
-4.514869	G	-0.03791831
-4.514869	i	-0.03791831
-4.514869	o	-0.03791831
-4.514869	r	-0.03791831
-4.514869	s	-0.03791831
-4.514869	x	-0.03791831
-4.514869	|	-0.03791831
-4.514869		-0.03791831
-4.514869		-0.03791831
-4.514869		-0.03791831
-4.514869		-0.03791831
-4.514869		-0.03791831
-4.514869		-0.0379183
-4.514869		-0.03791831
-4.346582		-0.03791831
-4.514869		-0.03791831
-4.514869		-0.03791831
-4.514869		-0.03791831
-4.346582		-0.03791831
-4.514869		-0.03791831
-4.514869		-0.03791831
-4.514869		-0.03791831
-4.514869		-0.0379183
-4.346582		-0.03791831
-4.346582		-0.0379183
-4.514869		-0.03791831
-4.514869		-0.03791831
-4.514869		-0.03791831
-4.514869		-0.0379183
-4.514869		-0.0379183
-4.514869		-0.03791831
-4.514869		-0.03791831
-4.514869	I	-0.03791831
-4.514869	R	-0.03791831
-4.514869	Y	-0.03791831
-4.346582	^	-0.03791831
-4.346582	g	-0.03791831
-4.514869	g田纲吉	-0.03791831
-4.514869	i	-0.03791831
-4.514869	l	-0.03791831
-3.916411	m	-0.0644361
-4.514869		-0.03791831
-4.514869		-0.0379183
-4.346582		-0.1334421
-4.514869		-0.03791831
-4.514869		-0.03791831
-4.346582		-0.1334421
-4.514869	水	-0.03791831
-4.514869		-0.03791831
-4.514869		-0.03791831
-4.514869		-0.03791831
-4.514869		-0.03791831
-4.514869		-0.03791831
-4.514869		-0.03791831
-4.514869		-0.03791831
-4.514869		-0.03791831
-4.514869	埠	-0.03791831
-4.514869		-0.03791831
-4.514869	澈	-0.03791831
-4.514869		-0.03791831
-4.514869	负	-0.03791831
-4.514869	负忧	-0.03791831
-4.514869		-0.0379183
-4.514869	哄	-0.03791831
-4.514869	哄鄙态区	-0.03791831
-4.514869		-0.03791831
-4.514869		-0.03791831
-4.514869		-0.03791831
-4.514869		-0.03791831
-4.514869		-0.03791831
-4.514869		-0.03791831
-3.916411		-0.05097484
-4.514869		-0.03791831
-4.514869		-0.03791831
-4.514869		-0.03791831
-4.514869	嫔	-0.03791831
-4.514869		-0.03791831
-4.514869		-0.03791831
-4.514869		-0.03791831
-4.514869		-0.03791831
-4.514869		-0.03791831
-4.346582	B	-0.03791831
-4.514869	R	-0.03791831
-4.514869	[	-0.03791831
-4.346582	a	-0.1904466
-4.514869	c	-0.03791831
-4.514869	f	-0.03791831
-4.346582	h	-0.03791831
-4.514869	i	-0.03791831
-4.346582	n	-0.03791831
-4.514869	陂古村	-0.03791831
-4.514869		-0.03791831
-4.346582		-0.03791831
-4.514869		-0.03791831
-3.830685		-0.0713265
-4.346582		-0.1904466
-4.514869		-0.03791831
-4.346582		-0.03791831
-4.514869		-0.03791831
-4.514869	煌逭	-0.03791831
-4.165472		-0.1334421
-4.514869		-0.03791831
-4.514869		-0.03791831
-4.514869		-0.03791831
-4.514869		-0.03791831
-4.514869		-0.03791831
-4.514869		-0.03791831
-4.514869		-0.03791831
-4.514869		-0.03791831
-4.514869		-0.0379183
-4.514869		-0.03791831
-4.514869	g乃南	-0.03791831
-4.514869		-0.03791831
-4.514869	C	-0.03791831
-4.514869	Q	-0.03791831
-4.514869	f	-0.03791831
-4.514869		-0.03791831
-4.514869		-0.03791831
-4.514869		-0.03791831
-4.514869		-0.03791831
-4.514869		-0.0379183
-4.514869		-0.03791831
-4.514869		-0.03791831
-4.514869		-0.03791831
-4.514869		-0.03791831
-4.514869		-0.03791831
-4.514869	势终	-0.03791831
-4.346582		-0.1904466
-4.346582		-0.1904466
-4.346582		-0.05430123
-4.514869		-0.03791831
-4.514869	G	-0.03791831
-4.514869	e	-0.03791831
-4.514869	e河回族区	-0.03791831
-4.514869	e河区	-0.03791831
-4.346582	s	-0.03791831
-4.514869		-0.03791831
-4.514869		-0.03791831
-4.514869		-0.03791831
-4.514869		-0.03791831
-4.514869		-0.03791831
-4.514869		-0.03791831
-4.346582		-0.03791831
-4.514869		-0.0379183
-4.514869		-0.03791831
-4.514869		-0.03791831
-4.514869		-0.03791831
-4.514869		-0.03791831
-4.514869		-0.03791831
-4.514869		-0.03791831
-4.514869		-0.03791831
-4.514869		-0.03791831
-4.514869	@	-0.03791831
-4.514869	A	-0.03791831
-4.514869	Q	-0.03791831
-4.514869	h	-0.03791831
-4.514869	h苹果	-0.03791831
-4.514869	h染烫	-0.03791831
-4.514869	h油	-0.03791831
-4.514869	h油膏	-0.03791831
-4.346582		-0.1904466
-4.514869		-0.03791831
-4.514869		-0.03791831
-4.514869		-0.03791831
-4.514869		-0.03791831
-4.514869		-0.03791831
-4.514869		-0.03791831
-4.514869		-0.03791831
-4.514869		-0.03791831
-4.514869		-0.03791831
-4.514869		-0.03791831
-4.514869		-0.03791831
-4.514869		-0.03791831
-4.514869		-0.03791831
-4.514869		-0.03791831
-4.165472		-0.03791831
-4.514869	龊	-0.03791831
-4.514869	黾鞘烤	-0.03791831
-4.514869		-0.03791831
-4.514869		-0.0379183
-2.545773	　	-0.1856001
-4.514869	〔	-0.03791831
-4.514869	【	-0.03791831
-4.514869	⒈	-0.0379183
-4.514869	⒌	-0.03791831
-4.514869	⒓	-0.03791831
-4.346582	⑵	-0.03791831
-4.514869	⒂	-0.03791831
-4.514869	さ	-0.03791831
-4.514869	ぜ	-0.03791831
-4.514869	だ	-0.0379183
-4.514869	て	-0.03791831
-4.514869	ど	-0.03791831
-4.514869	ろ	-0.03791831
-4.514869	グ	-0.0379183
-4.514869	ス	-0.03791831
-4.514869	ゼ	-0.03791831
-4.346582	チ	-0.1904466
-4.514869	ッ	-0.03791831
-4.514869	ノ	-0.03791831
-4.514869	ハ	-0.03791831
-4.514869	ビ	-0.03791831
-4.514869	ピ	-0.03791831
-4.514869	ロ	-0.0379183
-4.514869	Ψ	-0.03791831
-4.514869	δ	-0.03791831
-4.514869	ε	-0.03791831
-4.514869	ο	-0.03791831
-4.514869	ψ	-0.03791831
-4.514869	г	-0.0379183
-4.514869	ú	-0.03791831
-4.346582	ǘ	-0.03791831
-4.514869		-0.03791831
-4.514869	ㄟ	-0.03791831
-4.514869	┎	-0.03791831
-4.514869	┒	-0.03791831
-4.514869	┓	-0.03791831
-4.514869	┢	-0.03791831
-4.514869	┤	-0.03791831
-4.514869	┧	-0.03791831
-4.514869	┮	-0.03791831
-4.514869		-0.03791831
-4.514869		-0.03791831
-4.514869		-0.03791831
-4.514869	]	-0.03791831
-4.514869	c	-0.03791831
-4.514869	d	-0.03791831
-4.514869	h	-0.03791831
-4.514869	hh	-0.03791831
-4.514869		-0.03791831
-4.514869		-0.03791831
-4.514869		-0.03791831
-4.514869		-0.03791831
-4.514869		-0.03791831
-4.514869		-0.03791831
-4.514869		-0.03791831
-4.514869		-0.03791831
-4.346582		-0.03791831
-4.346582	B	-0.03791831
-4.514869	L琴	-0.03791831
-4.514869	a	-0.03791831
-4.514869	g	-0.03791831
-4.514869	i	-0.03791831
-4.346582	u	-0.03791831
-4.346582		-0.03791831
-4.514869		-0.03791831
-4.514869		-0.03791831
-4.514869		-0.03791831
-4.514869	川莉娜	-0.03791831
-4.514869		-0.03791831
-4.514869		-0.03791831
-4.514869		-0.03791831
-4.514869	B	-0.03791831
-4.165472	Z	-0.03791831
-4.514869	[	-0.03791831
-4.514869		-0.03791831
-4.514869	[	-0.03791831
-4.514869	e	-0.03791831
-4.514869	f直	-0.0379183
-4.514869	f直古镇	-0.03791831
-4.514869	h	-0.03791831
-4.514869	q	-0.03791831
-4.514869	x	-0.03791831
-4.514869		-0.03791831
-4.514869		-0.03791831
-4.514869	D	-0.03791832
-4.346582	K	-0.0379183
-4.514869	]	-0.03791831
-4.514869	}	-0.03791831
-4.514869		-0.03791831
-4.514869		-0.03791831
-4.514869		-0.03791831
-4.346582	Z	-0.03791831
-4.346582	k	-0.1075204
-4.514869	o	-0.03791831
-4.514869	w月驱	-0.03791831
-4.514869	x	-0.03791831
-4.346582	~	-0.03791831
-4.346582		-0.1904466
-4.514869		-0.03791831
-4.514869		-0.03791831
-4.514869		-0.03791831
-4.514869		-0.03791831
-4.514869		-0.03791831
-4.514869		-0.03791831
-2.2017	啊	-0.1440454
-3.552926	啊啊	-0.07118332
-3.357864	啊啊啊	-0.09229229
-3.152919	啊啊啊啊	-0.1842284
-4.514869	啊啊啊啊科学实验站	-0.03791831
-4.346582	啊啊啊吧	-0.1334421
-4.514869	啊到	-0.03791831
-4.346582	啊哈	-0.03791831
-4.023327	啊哈哈	-0.1049642
-4.165472	啊哈哈哈	-0.0713265
-4.514869	啊喇乡	-0.03791831
-4.514869	啊啦啦	-0.03791831
-4.346582	啊嘛	-0.1904466
-4.514869	啊男孩	-0.03791831
-4.165472	啊你	-0.03791831
-4.514869	啊哦	-0.03791831
-4.514869	啊呸	-0.03791831
-4.514869	啊去	-0.03791831
-4.346582	啊是	-0.03791831
-4.514869	啊喂	-0.03791831
-4.165472	啊呜	-0.03791831
-4.165472	啊呀	-0.05669294
-4.514869	啊呀呀	-0.03791831
-4.514869	啊要	-0.03791831
-4.514869	啊哟	-0.03791831
-4.514869	啊有	-0.03791831
-4.514869	啊在	-0.03791831
-4.514869	啊呦	-0.03791831
-4.514869	啊咧	-0.03791831
-4.514869	啊嘞	-0.03791831
-2.958604	阿	-0.07085314
-4.514869	阿阿熊	-0.03791831
-4.514869	阿巴丹	-0.03791831
-4.514869	阿巴多	-0.03791831
-4.514869	阿巴嘎旗	-0.03791831
-4.514869	阿巴拉	-0.03791831
-4.514869	阿巴拉契亚山脉	-0.03791831
-4.346582	阿巴斯	-0.03791831
-4.514869	阿巴特	-0.03791831
-4.514869	阿坝藏族羌族自治州	-0.03791831
-4.514869	阿坝县	-0.0379183
-4.514869	阿坝州	-0.03791831
-4.514869	阿爸	-0.03791831
-4.514869	阿拜	-0.03791831
-4.514869	阿邦网	-0.0379183
-4.514869	阿保	-0.03791831
-4.514869	阿宝	-0.03791831
-4.514869	阿爆	-0.03791831
-4.514869	阿北	-0.03791831
-4.514869	阿贝	-0.03791831
-4.514869	阿贝尔	-0.03791831
-4.514869	阿比	-0.03791831
-4.514869	阿比让	-0.03791831
-4.514869	阿碧	-0.03791831
-4.514869	阿碧丝	-0.0379183
-4.514869	阿彬	-0.03791831
-4.514869	阿斌	-0.03791831
-4.514869	阿兵哥	-0.03791831
-4.514869	阿冰	-0.03791831
-4.514869	阿柄	-0.03791831
-4.514869	阿炳	-0.03791831
-4.514869	阿波	-0.03791831
-4.514869	阿波罗	-0.03791831
-4.514869	阿波罗神庙	-0.03791831
-4.514869	阿伯	-0.03791831
-4.514869	阿伯丁	-0.0379183
-4.514869	阿伯特	-0.03791831
-4.514869	阿卜杜拉	-0.03791831
-4.514869	阿卜杜勒拉赫曼	-0.03791831
-4.514869	阿不都热依木	-0.03791831
-4.514869	阿不拉	-0.03791831
-4.514869	阿不力米提	-0.03791831
-4.514869	阿布	-0.03791831
-4.514869	阿布布	-0.03791831
-4.514869	阿布德尔	-0.03791831
-4.514869	阿布都	-0.03791831
-4.514869	阿布都拉	-0.03791831
-4.514869	阿布都热合曼	-0.03791831
-4.514869	阿布杜	-0.03791831
-4.514869	阿布贾	-0.03791831
-4.346582	阿布拉	-0.03791831
-4.514869	阿布力孜	-0.03791831
-4.514869	阿布辛贝勒神庙	-0.03791831
-4.514869	阿布扎比	-0.03791831
-4.514869	阿布扎比大清真寺	-0.03791831
-4.514869	阿布扎比皇宫酒店	-0.03791831
-4.514869	阿部定	-0.03791831
-4.514869	阿部宽	-0.03791831
-4.514869	阿财	-0.03791831
-4.514869	阿灿	-0.03791831
-4.514869	阿昌	-0.03791831
-4.514869	阿长	-0.03791831
-4.514869	阿超	-0.03791831
-4.514869	阿彻	-0.03791831
-4.514869	阿城	-0.03791831
-4.514869	阿城六中	-0.03791831
-4.514869	阿城区	-0.03791831
-4.514869	阿澄佳奈	-0.03791831
-4.514869	阿春	-0.03791831
-4.514869	阿达	-0.03791831
-4.514869	阿达三国志	-0.03791831
-4.514869	阿达西	-0.03791831
-4.514869	阿大	-0.03791831
-4.346582	阿呆	-0.05430125
-4.514869	阿丹	-0.03791831
-4.514869	阿单	-0.0379183
-4.514869	阿当	-0.03791831
-4.514869	阿当的抉择	-0.03791831
-4.514869	阿道	-0.03791831
-4.514869	阿道夫	-0.03791831
-4.514869	阿德	-0.03791831
-4.514869	阿德巴约	-0.03791831
-4.514869	阿德儿	-0.03791831
-4.514869	阿德尔曼	-0.0379183
-4.514869	阿德尔森	-0.03791831
-4.514869	阿德勒	-0.0379183
-4.514869	阿德雷德大学	-0.03791831
-4.514869	阿德里安	-0.03791831
-4.514869	阿德南	-0.03791831
-4.514869	阿的江	-0.03791831
-4.514869	阿登纳	-0.03791831
-4.514869	阿迪	-0.03791831
-4.514869	阿迪达斯	-0.03791831
-4.514869	阿迪达斯三叶草	-0.03791831
-4.514869	阿迪力	-0.0379183
-4.346582	阿迪王	-0.03791831
-4.514869	阿狄丽娜	-0.03791831
-4.514869	阿弟	-0.03791831
-4.514869	阿爹	-0.03791831
-4.514869	阿丁	-0.03791831
-4.514869	阿东	-0.03791831
-4.514869	阿斗	-0.03791831
-4.514869	阿豆	-0.03791831
-4.514869	阿堵物	-0.03791831
-4.514869	阿杜	-0.03791831
-4.346582	阿短	-0.03791831
-4.514869	阿朵	-0.03791831
-4.165472	阿尔	-0.03791832
-4.514869	阿尔艾因	-0.03791831
-4.514869	阿尔芭	-0.03791831
-4.346582	阿尔巴	-0.03791831
-4.514869	阿尔巴尼	-0.03791831
-4.514869	阿尔巴尼亚	-0.03791831
-4.514869	阿尔卑斯	-0.03791831
-4.514869	阿尔卑斯山	-0.03791831
-4.514869	阿尔卑斯山脉	-0.03791831
-4.514869	阿尔贝拉	-0.03791831
-4.514869	阿尔贝托	-0.0379183
-4.514869	阿尔滨	-0.03791831
-4.514869	阿尔宾	-0.03791831
-4.514869	阿尔伯塔	-0.03791831
-4.514869	阿尔伯特	-0.03791831
-4.514869	阿尔伯特亲王	-0.03791831
-4.514869	阿尔伯托	-0.03791831
-4.514869	阿尔茨含氏症	-0.03791831
-4.514869	阿尔达布拉岛	-0.03791831
-4.514869	阿尔德里奇	-0.03791831
-4.514869	阿尔法	-0.03791831
-4.514869	阿尔法罗	-0.03791831
-4.514869	阿尔菲	-0.03791831
-4.514869	阿尔弗雷德	-0.0379183
-4.514869	阿尔罕布拉	-0.03791831
-4.514869	阿尔及尔	-0.03791831
-4.346582	阿尔及利亚	-0.05669294
-4.514869	阿尔加维	-0.03791831
-4.514869	阿尔卡塞	-0.03791831
-4.514869	阿尔卡特	-0.03791831
-4.514869	阿尔玛	-0.03791831
-4.514869	阿尔萨德	-0.03791831
-4.514869	阿尔萨斯	-0.0379183
-4.514869	阿尔沙文	-0.03791831
-4.514869	阿尔山	-0.03791831
-4.514869	阿尔山市	-0.03791831
-4.514869	阿尔山温泉	-0.03791831
-4.514869	阿尔斯通	-0.03791831
-4.514869	阿尔泰山	-0.03791831
-4.346582	阿尔特塔	-0.03791831
-4.514869	阿尔瓦	-0.03791831
-4.514869	阿尔维斯	-0.03791831
-4.514869	阿尔忒弥斯	-0.03791831
-4.514869	阿尔忒弥斯神庙	-0.03791831
-4.346582	阿二	-0.03791831
-4.514869	阿发	-0.03791831
-4.514869	阿法尔	-0.03791831
-4.514869	阿凡达	-0.03791831
-4.514869	阿凡提	-0.03791831
-4.514869	阿方	-0.03791831
-4.514869	阿方索	-0.03791831
-4.514869	阿房	-0.03791831
-4.514869	阿房宫	-0.03791831
-4.514869	阿非利加	-0.03791831
-4.514869	阿飞	-0.0379183
-4.514869	阿飞正传	-0.03791831
-4.514869	阿费莱	-0.0379183
-4.514869	阿峰	-0.03791831
-4.514869	阿凤	-0.03791831
-4.514869	阿佛	-0.03791831
-4.514869	阿福	-0.03791831
-4.514869	阿弗比	-0.03791831
-4.514869	阿弗尔	-0.03791831
-4.514869	阿弗莱	-0.03791831
-4.514869	阿弗莱克	-0.03791831
-4.514869	阿富	-0.03791831
-4.514869	阿富汗	-0.03791831
-4.514869	阿富汗历史	-0.03791831
-4.514869	阿富汗战争	-0.03791831
-4.514869	阿盖	-0.03791831
-4.514869	阿甘	-0.03791831
-4.514869	阿甘慢递	-0.03791831
-4.514869	阿甘油	-0.03791831
-4.514869	阿甘正传	-0.03791831
-4.514869	阿纲	-0.03791831
-4.514869	阿哥	-0.03791831
-4.514869	阿鸽	-0.03791831
-4.514869	阿格	-0.03791831
-4.346582	阿根廷	-0.03791831
-4.514869	阿根廷杜高犬	-0.03791831
-4.514869	阿根廷竞技	-0.03791831
-4.514869	阿根廷总统	-0.03791831
-4.023327	阿公	-0.05430125
-4.514869	阿公阿婆	-0.03791831
-4.514869	阿公公	-0.03791831
-4.514869	阿姑	-0.03791831
-4.514869	阿古拉	-0.0379183
-4.514869	阿古丽娅	-0.03791831
-4.514869	阿古斯塔	-0.03791831
-4.514869	阿古特	-0.03791831
-4.514869	阿怪	-0.03791831
-4.514869	阿龟	-0.03791831
-4.514869	阿桂	-0.03791831
-4.514869	阿贵	-0.03791831
-4.514869	阿国	-0.03791831
-4.514869	阿哈	-0.03791831
-4.514869	阿哈水库	-0.03791831
-4.514869	阿海	-0.03791831
-4.514869	阿含	-0.03791831
-4.514869	阿含经	-0.03791831
-4.514869	阿寒国立公园	-0.03791831
-4.514869	阿寒湖	-0.03791831
-4.514869	阿航	-0.03791831
-4.514869	阿和	-0.03791831
-4.514869	阿合	-0.03791831
-4.514869	阿合奇	-0.03791831
-4.514869	阿合奇县	-0.03791831
-4.514869	阿黑哥	-0.03791831
-4.514869	阿衡	-0.03791831
-4.514869	阿鸿	-0.03791831
-4.514869	阿红	-0.03791831
-4.346582	阿虎	-0.03791831
-4.514869	阿花	-0.03791831
-4.514869	阿华	-0.03791831
-4.514869	阿华田	-0.03791831
-4.514869	阿惠	-0.03791831
-4.514869	阿基	-0.03791831
-4.514869	阿基里斯	-0.03791831
-4.514869	阿基米	-0.03791831
-4.514869	阿基米德	-0.03791831
-4.514869	阿基若	-0.03791831
-4.514869	阿姬曼	-0.03791831
-4.514869	阿吉	-0.03791831
-4.514869	阿吉豆	-0.03791831
-4.514869	阿吉雷	-0.03791831
-4.514869	阿吉特	-0.03791831
-4.514869	阿吉仔	-0.03791831
-4.514869	阿佳	-0.03791831
-4.514869	阿加	-0.03791831
-4.514869	阿加莎	-0.03791831
-4.514869	阿加塔	-0.03791831
-4.514869	阿加西	-0.0379183
-4.514869	阿贾克斯	-0.03791831
-4.514869	阿甲	-0.03791831
-4.346582	阿坚	-0.03791831
-4.514869	阿健	-0.0379183
-4.514869	阿姜查	-0.03791831
-4.514869	阿酱	-0.03791831
-4.346582	阿胶	-0.03791831
-4.514869	阿胶膏	-0.03791831
-4.514869	阿胶糕	-0.03791831
-4.514869	阿胶浆	-0.03791831
-4.514869	阿胶粥	-0.03791831
-4.514869	阿娇	-0.03791831
-4.514869	阿杰	-0.03791831
-4.514869	阿杰邦尼	-0.03791831
-4.514869	阿姐	-0.03791831
-4.514869	阿金	-0.03791831
-4.514869	阿进	-0.03791831
-4.514869	阿九	-0.03791831
-4.514869	阿菊	-0.03791831
-4.514869	阿喀琉斯	-0.03791831
-4.514869	阿喀琉斯基猴	-0.03791831
-4.514869	阿卡	-0.03791831
-4.514869	阿卡贝拉	-0.03791831
-4.514869	阿卡迪亚的牧人	-0.03791831
-4.514869	阿卡古城	-0.03791831
-4.514869	阿卡丽	-0.03791831
-4.514869	阿卡林	-0.03791831
-4.514869	阿卡普尔科	-0.03791831
-4.514869	阿卡奇	-0.03791831
-4.514869	阿康	-0.03791831
-4.514869	阿克	-0.03791831
-4.514869	阿克拉	-0.03791831
-4.514869	阿克曼	-0.03791831
-4.514869	阿克塞	-0.0379183
-4.514869	阿克塞尔	-0.03791831
-4.514869	阿克斯	-0.03791831
-4.514869	阿克苏	-0.03791831
-4.514869	阿克苏博爱医院	-0.03791831
-4.514869	阿克苏车务段	-0.03791831
-4.514869	阿克苏地区	-0.03791831
-4.514869	阿克苏地区审计局	-0.03791831
-4.514869	阿克苏地委	-0.03791831
-4.514869	阿克苏河	-0.03791831
-4.514869	阿克苏火车站	-0.03791831
-4.514869	阿克苏苹果	-0.03791831
-4.514869	阿克苏世纪广场	-0.03791831
-4.346582	阿克苏市	-0.03791831
-4.514869	阿克陶	-0.0379183
-4.514869	阿克陶县	-0.03791831
-4.514869	阿肯色大学	-0.03791831
-4.514869	阿肯色州	-0.03791831
-4.514869	阿库里	-0.03791831
-4.514869	阿库瓦	-0.03791831
-4.514869	阿奎	-0.03791831
-4.514869	阿奎拉	-0.03791831
-4.514869	阿坤	-0.03791831
-3.916411	阿拉	-0.04270842
-4.514869	阿拉巴	-0.03791831
-4.346582	阿拉巴马州	-0.03791831
-4.514869	阿拉棒	-0.03791831
-4.514869	阿拉比	-0.03791831
-4.514869	阿拉比卡咖啡	-0.03791831
-4.514869	阿拉伯	-0.03791832
-4.514869	阿拉伯茶	-0.03791831
-4.514869	阿拉伯风格绮想曲	-0.03791831
-4.514869	阿拉伯国家	-0.03791831
-4.514869	阿拉伯联合酋长国	-0.0379183
-4.514869	阿拉伯人	-0.03791831
-4.514869	阿拉伯世界	-0.03791831
-4.514869	阿拉伯数字	-0.03791831
-4.514869	阿拉伯糖	-0.03791831
-4.514869	阿拉伯语	-0.03791831
-4.514869	阿拉伯语翻译	-0.03791831
-4.514869	阿拉村	-0.03791831
-4.514869	阿拉德	-0.03791831
-4.514869	阿拉德大陆	-0.03791831
-4.514869	阿拉丁	-0.03791831
-4.514869	阿拉丁神灯	-0.03791831
-4.514869	阿拉尔	-0.03791831
-4.514869	阿拉尔市	-0.03791831
-4.514869	阿拉法特	-0.03791831
-4.514869	阿拉贡	-0.03791831
-4.514869	阿拉贡内斯	-0.03791831
-4.514869	阿拉沟	-0.03791831
-4.346582	阿拉湖	-0.1334421
-4.514869	阿拉基	-0.0379183
-4.514869	阿拉克	-0.03791831
-4.514869	阿拉拉	-0.03791831
-4.514869	阿拉蕾	-0.03791831
-4.514869	阿拉曼	-0.03791831
-4.514869	阿拉木图	-0.03791831
-4.514869	阿拉山	-0.03791831
-4.514869	阿拉山口	-0.03791831
-4.514869	阿拉善	-0.03791831
-4.514869	阿拉善电业局	-0.03791831
-4.514869	阿拉善经济开发区	-0.03791831
-4.514869	阿拉善盟	-0.03791831
-4.514869	阿拉善左旗	-0.03791831
-4.514869	阿拉斯加	-0.03791831
-4.514869	阿拉斯加州	-0.03791831
-4.514869	阿拉索	-0.03791831
-4.514869	阿拉腾敖包	-0.03791831
-4.514869	阿拉兔	-0.03791831
-4.514869	阿拉营	-0.03791831
-4.346582	阿啦	-0.03791831
-4.514869	阿莱	-0.03791831
-4.514869	阿莱夫	-0.03791831
-4.514869	阿莱格里	-0.03791831
-4.514869	阿莱士	-0.03791831
-4.514869	阿莱西奥	-0.03791831
-4.514869	阿莱茵	-0.03791831
-4.514869	阿来	-0.03791831
-4.514869	阿赖耶识	-0.03791831
-4.514869	阿兰	-0.03791831
-4.514869	阿兰德	-0.03791831
-4.514869	阿兰那行者	-0.03791831
-4.514869	阿兰娜	-0.03791831
-4.514869	阿兰若	-0.03791831
-4.514869	阿郎	-0.03791831
-4.514869	阿朗戈	-0.03791831
-4.514869	阿劳	-0.03791831
-4.514869	阿姥	-0.03791831
-4.514869	阿勒	-0.03791831
-4.514869	阿勒颇	-0.03791831
-4.514869	阿勒邱	-0.03791831
-4.514869	阿勒泰	-0.03791831
-4.514869	阿勒泰地区	-0.03791831
-4.514869	阿勒泰路	-0.03791831
-4.514869	阿勒泰市	-0.03791831
-4.514869	阿勒泰市团委	-0.03791831
-4.514869	阿乐	-0.03791831
-4.514869	阿雷格里港	-0.03791831
-4.514869	阿蕾	-0.03791831
-4.346582	阿狸	-0.03791831
-4.514869	阿狸主题	-0.03791831
-4.514869	阿李	-0.03791831
-3.830685	阿里	-0.04552961
-4.514869	阿里阿里	-0.03791831
-4.023327	阿里巴巴	-0.03791831
-4.514869	阿里巴巴国际站	-0.03791831
-4.514869	阿里巴巴集团	-0.03791831
-4.514869	阿里巴巴烧烤	-0.03791831
-4.514869	阿里巴巴影业集团	-0.03791831
-4.514869	阿里地区	-0.03791831
-4.514869	阿里汉	-0.03791831
-4.514869	阿里河	-0.03791831
-4.514869	阿里金融	-0.03791831
-4.514869	阿里拉	-0.03791831
-4.514869	阿里来往	-0.03791831
-4.514869	阿里郎	-0.03791831
-4.514869	阿里妈妈	-0.03791831
-4.514869	阿里木	-0.0379183
-4.514869	阿里木江	-0.03791831
-4.514869	阿里日	-0.03791831
-4.514869	阿里山	-0.03791831
-4.514869	阿里山宾馆	-0.03791831
-4.514869	阿里山茶	-0.0379183
-4.514869	阿里山的姑娘	-0.03791831
-4.514869	阿里山神木	-0.03791831
-4.514869	阿里山棕榈岛	-0.03791831
-4.514869	阿里手游平台	-0.03791831
-4.514869	阿里斯顿	-0.03791831
-4.514869	阿里斯托芬	-0.03791831
-4.514869	阿里塔	-0.03791831
-4.514869	阿里通	-0.03791831
-4.514869	阿里推	-0.03791831
-4.514869	阿里旺旺	-0.03791831
-4.514869	阿里小微金融服务集团	-0.03791831
-4.514869	阿里亚斯	-0.03791831
-4.514869	阿里云	-0.03791831
-4.514869	阿里扎	-0.03791831
-4.514869	阿丽拉	-0.03791831
-4.514869	阿丽雅	-0.03791831
-4.346582	阿利	-0.03791831
-4.514869	阿利坎特	-0.03791831
-4.514869	阿力	-0.03791831
-4.514869	阿力木	-0.03791831
-4.514869	阿哩哩	-0.03791831
-4.514869	阿联酋	-0.03791831
-4.514869	阿联酋航空	-0.03791831
-4.514869	阿莲	-0.03791831
-4.514869	阿连	-0.03791831
-4.514869	阿练	-0.03791831
-4.514869	阿梁	-0.03791831
-4.514869	阿良	-0.03791831
-4.514869	阿良良木	-0.03791831
-4.514869	阿亮	-0.03791831
-4.514869	阿亮学长	-0.03791831
-4.514869	阿列	-0.03791831
-4.514869	阿林	-0.03791831
-4.514869	阿龙	-0.03791831
-4.514869	阿龙正罡	-0.03791831
-4.514869	阿隆索	-0.03791831
-4.346582	阿鲁	-0.03791831
-4.514869	阿鲁阿卓	-0.03791831
-4.514869	阿鲁巴岛	-0.03791831
-4.514869	阿露露	-0.03791831
-4.346582	阿伦	-0.03791831
-4.514869	阿罗德	-0.03791831
-4.514869	阿罗哈	-0.03791831
-4.514869	阿罗汉	-0.03791831
-4.514869	阿罗拉	-0.03791831
-4.514869	阿洛	-0.03791831
-4.514869	阿洛西林	-0.03791831
-4.514869	阿洛伊西奥	-0.03791831
-4.346582	阿妈	-0.04720418
-4.514869	阿妈啦	-0.03791831
-4.514869	阿妈妮	-0.03791831
-4.514869	阿妈尼	-0.03791831
-4.514869	阿玛	-0.03791831
-4.514869	阿玛妮	-0.03791831
-4.514869	阿玛尼	-0.0379183
-4.514869	阿马	-0.03791831
-4.514869	阿马尔菲憾	-0.03791831
-4.514869	阿迈	-0.03791831
-4.514869	阿曼	-0.03791831
-4.514869	阿曼达	-0.03791831
-4.514869	阿曼尼	-0.03791831
-4.514869	阿谩琳	-0.03791831
-4.514869	阿猫阿狗	-0.03791831
-4.514869	阿毛	-0.03791831
-4.514869	阿么	-0.03791831
-4.346582	阿梅	-0.03791831
-4.514869	阿梅利亚	-0.03791831
-4.514869	阿美	-0.03791831
-4.514869	阿美人	-0.03791831
-4.514869	阿美族	-0.03791831
-4.165472	阿妹	-0.03791831
-4.514869	阿妹妹	-0.03791831
-4.165472	阿门	-0.05034411
-4.514869	阿蒙	-0.03791831
-4.514869	阿盟	-0.03791831
-4.514869	阿弥陀	-0.0379183
-3.916411	阿弥陀佛	-0.09842047
-4.514869	阿弥陀佛四十八愿	-0.03791831
-4.514869	阿弥陀经	-0.03791831
-4.514869	阿米	-0.03791831
-4.514869	阿米巴	-0.03791831
-4.514869	阿米尔	-0.03791831
-4.514869	阿米韩国料理	-0.03791831
-4.514869	阿米莉亚	-0.0379183
-4.514869	阿米娜	-0.03791831
-4.514869	阿米乃	-0.03791831
-4.514869	阿米尼	-0.03791831
-4.514869	阿米什人	-0.0379183
-4.514869	阿蜜	-0.03791831
-4.514869	阿密娜	-0.03791831
-4.514869	阿密特	-0.03791831
-4.514869	阿苗	-0.03791831
-4.514869	阿民	-0.03791831
-4.514869	阿敏	-0.03791831
-4.514869	阿明	-0.03791831
-4.514869	阿莫	-0.03791831
-4.514869	阿莫西林	-0.03791831
-4.514869	阿默	-0.03791831
-4.514869	阿姆	-0.03791831
-4.514869	阿姆斯特丹	-0.03791831
-4.514869	阿姆斯特丹史基浦机场	-0.03791831
-4.514869	阿姆斯特朗	-0.03791831
-4.514869	阿母	-0.03791831
-4.514869	阿木	-0.03791831
-4.514869	阿木尔	-0.03791831
-4.514869	阿木哥	-0.03791831
-4.514869	阿木古楞	-0.03791831
-4.514869	阿木木	-0.03791831
-4.514869	阿木乃	-0.03791831
-4.514869	阿木塔	-0.03791831
-4.514869	阿木提	-0.03791831
-4.514869	阿穆	-0.03791831
-4.514869	阿穆尔州	-0.03791831
-4.514869	阿那	-0.03791831
-4.514869	阿那克西曼德	-0.03791831
-4.514869	阿那律	-0.03791831
-4.346582	阿娜达	-0.1334421
-4.514869	阿纳	-0.03791831
-4.514869	阿纳悍公司	-0.03791831
-4.514869	阿奶	-0.03791831
-4.514869	阿南	-0.0379183
-4.514869	阿难尊者	-0.03791831
-4.514869	阿内尔卡	-0.03791831
-4.346582	阿嫩	-0.03791831
-4.514869	阿能面	-0.03791831
-4.514869	阿妮	-0.03791831
-4.514869	阿尼	-0.03791831
-4.514869	阿尼玛	-0.03791831
-4.514869	阿尼塔	-0.03791831
-4.514869	阿尼亚	-0.03791831
-4.514869	阿年	-0.03791831
-4.346582	阿娘	-0.03791831
-4.346582	阿宁	-0.03791831
-4.514869	阿牛	-0.03791831
-4.514869	阿奴	-0.03791831
-4.165472	阿诺	-0.03791831
-4.514869	阿诺德	-0.03791831
-4.514869	阿诺玛	-0.03791831
-4.514869	阿帕	-0.03791831
-4.514869	阿帕尔	-0.03791831
-4.514869	阿帕奇	-0.0379183
-4.514869	阿帕契	-0.0379183
-4.514869	阿潘	-0.03791831
-4.514869	阿庞	-0.03791831
-4.514869	阿蓬江	-0.03791831
-4.346582	阿婆	-0.03791831
-4.514869	阿婆茶	-0.03791831
-4.514869	阿婆家	-0.03791831
-4.514869	阿婆铁蛋	-0.03791831
-4.514869	阿婆主	-0.03791831
-4.514869	阿普	-0.03791831
-4.514869	阿普贝思	-0.03791831
-4.514869	阿普顿	-0.03791831
-4.514869	阿普尔	-0.03791831
-4.514869	阿普萨萨	-0.03791831
-4.514869	阿普唑仑	-0.03791831
-4.346582	阿七	-0.03791831
-4.514869	阿七七	-0.03791831
-4.514869	阿其那	-0.03791831
-4.514869	阿奇巴尔德	-0.03791831
-4.514869	阿齐	-0.03791831
-4.346582	阿强	-0.06748501
-4.514869	阿悄	-0.03791831
-4.346582	阿巧	-0.1904466
-4.514869	阿琴	-0.03791831
-4.514869	阿青	-0.03791831
-4.514869	阿清	-0.03791831
-4.514869	阿庆嫂	-0.03791831
-4.514869	阿秋法王	-0.03791831
-4.514869	阿权	-0.03791831
-4.514869	阿热	-0.03791831
-4.514869	阿热勒	-0.03791831
-4.514869	阿荣旗	-0.03791831
-4.514869	阿荣旗交警大队	-0.03791831
-4.514869	阿容	-0.03791831
-4.514869	阿茹娜	-0.03791831
-4.514869	阿如	-0.03791831
-4.346582	阿萨	-0.03791831
-4.346582	阿萨德	-0.08305915
-4.514869	阿萨帝	-0.03791831
-4.514869	阿萨多	-0.03791831
-4.514869	阿萨斯	-0.03791831
-4.514869	阿塞	-0.03791831
-4.514869	阿塞拜疆	-0.03791831
-4.514869	阿塞拜疆总统	-0.03791831
-4.023327	阿三	-0.04603252
-4.514869	阿三生煎	-0.03791831
-4.514869	阿桑	-0.03791831
-4.514869	阿瑟	-0.03791831
-4.514869	阿森	-0.03791831
-4.346582	阿森纳	-0.03791831
-4.514869	阿森纳队歌	-0.03791831
-4.514869	阿沙	-0.03791831
-4.514869	阿山	-0.03791831
-4.514869	阿膳卡	-0.03791831
-4.514869	阿扇	-0.03791831
-4.514869	阿涉	-0.03791831
-4.514869	阿生	-0.03791831
-4.514869	阿师	-0.03791831
-4.514869	阿诗玛	-0.03791831
-4.514869	阿什顿	-0.03791831
-4.514869	阿什哈达摩崖	-0.03791831
-4.514869	阿什河	-0.03791831
-4.514869	阿什里	-0.03791831
-4.514869	阿什利	-0.03791831
-4.514869	阿世	-0.03791831
-4.514869	阿是	-0.03791831
-4.514869	阿市	-0.03791831
-4.514869	阿叔	-0.03791831
-4.514869	阿衰	-0.03791831
-4.023327	阿斯	-0.1397263
-4.514869	阿斯顿	-0.03791831
-4.514869	阿斯顿大学	-0.03791831
-4.514869	阿斯顿马丁	-0.03791831
-4.514869	阿斯顿维拉	-0.03791831
-4.514869	阿斯哈图	-0.03791831
-4.514869	阿斯哈图石林	-0.0379183
-4.514869	阿斯克斯	-0.03791831
-4.514869	阿斯汤	-0.03791831
-4.514869	阿斯特	-0.03791831
-4.514869	阿斯特拉	-0.03791831
-4.514869	阿司匹林	-0.03791831
-4.514869	阿肆	-0.03791831
-4.514869	阿四	-0.03791831
-4.514869	阿松	-0.03791831
-4.514869	阿苏勒	-0.03791831
-4.514869	阿苏山	-0.03791831
-4.514869	阿速	-0.03791831
-4.514869	阿塔	-0.03791831
-4.514869	阿塔卡马沙漠	-0.03791831
-4.514869	阿塔斯	-0.03791831
-4.514869	阿泰	-0.03791831
-4.514869	阿太	-0.03791831
-4.514869	阿汤哥	-0.03791831
-4.514869	阿汤嫂	-0.03791831
-4.514869	阿涛	-0.03791831
-4.514869	阿陶	-0.03791831
-4.514869	阿特	-0.03791831
-4.514869	阿特金森	-0.03791831
-4.514869	阿特金斯减肥法	-0.03791831
-4.514869	阿特劳	-0.03791831
-4.514869	阿特苏	-0.03791831
-4.514869	阿特维斯	-0.03791831
-4.514869	阿提卡	-0.03791831
-4.514869	阿提拉	-0.03791831
-4.346582	阿提亚	-0.03791831
-4.346582	阿嚏	-0.1075204
-4.514869	阿田	-0.03791831
-4.514869	阿瞳	-0.03791831
-4.514869	阿童	-0.03791831
-4.514869	阿童木	-0.03791831
-4.514869	阿图什	-0.03791831
-4.514869	阿图什市	-0.03791831
-4.514869	阿图医生	-0.03791831
-4.514869	阿土	-0.03791831
-4.514869	阿托查火车站	-0.03791831
-4.514869	阿托斯之棍	-0.03791831
-4.514869	阿陀斯山	-0.03791831
-4.514869	阿瓦	-0.03791831
-4.514869	阿瓦人民唱新歌	-0.03791831
-4.514869	阿瓦山寨	-0.0379183
-4.346582	阿瓦提	-0.09267896
-4.514869	阿瓦提县	-0.03791831
-4.514869	阿瓦提镇	-0.03791831
-4.514869	阿婉	-0.03791831
-4.514869	阿旺	-0.03791831
-4.514869	阿维	-0.03791831
-4.514869	阿维拉	-0.03791831
-4.514869	阿维尼翁	-0.03791831
-4.514869	阿伟	-0.03791831
-4.346582	阿文	-0.03791831
-4.514869	阿乌	-0.03791831
-4.514869	阿乌卵	-0.03791831
-4.514869	阿吾	-0.03791831
-4.514869	阿吾提	-0.03791831
-4.514869	阿武	-0.03791831
-4.514869	阿五	-0.03791831
-4.514869	阿五美食	-0.03791831
-4.514869	阿西	-0.03791831
-4.514869	阿西吧	-0.03791831
-4.514869	阿西克	-0.03791831
-4.514869	阿西莫	-0.03791831
-4.514869	阿西娅	-0.03791831
-4.514869	阿细先基	-0.03791831
-4.514869	阿霞	-0.03791831
-4.514869	阿厦丽	-0.03791831
-4.514869	阿夏	-0.03791831
-4.514869	阿仙奴	-0.03791831
-4.514869	阿香	-0.03791831
-4.514869	阿香婆	-0.03791831
-4.514869	阿乡	-0.03791831
-4.514869	阿翔	-0.03791831
-4.514869	阿祥集团	-0.0379183
-4.514869	阿小	-0.03791831
-4.514869	阿信	-0.03791831
-4.514869	阿星	-0.03791831
-4.514869	阿兴记	-0.03791831
-4.514869	阿杏	-0.03791831
-4.514869	阿休族	-0.03791831
-4.514869	阿修罗	-0.0379183
-4.514869	阿修罗之怒	-0.03791831
-4.514869	阿秀	-0.03791831
-4.514869	阿呀呀	-0.03791831
-4.514869	阿雅	-0.03791831
-4.514869	阿雅克肖	-0.03791831
-4.514869	阿阳	-0.03791831
-4.514869	阿耶	-0.03791831
-4.514869	阿爷	-0.03791831
-4.346582	阿依	-0.07631603
-4.514869	阿依达	-0.03791831
-4.514869	阿依河	-0.0379183
-4.514869	阿依库勒镇	-0.03791831
-4.514869	阿依莲	-0.03791831
-4.514869	阿依赛克村	-0.03791831
-4.514869	阿伊	-0.03791831
-3.759123	阿姨	-0.04215218
-4.514869	阿姨家	-0.03791831
-4.514869	阿姨奶茶	-0.03791831
-4.514869	阿姨做的	-0.03791831
-4.514869	阿意	-0.03791831
-4.514869	阿隐	-0.03791831
-4.514869	阿英	-0.03791831
-4.514869	阿英煲	-0.03791831
-4.514869	阿莹	-0.03791831
-4.514869	阿颖	-0.0379183
-4.514869	阿勇	-0.03791831
-4.514869	阿勇泽让	-0.03791831
-4.514869	阿尤	-0.03791831
-4.514869	阿尤恩	-0.03791831
-4.514869	阿有正传	-0.03791831
-4.514869	阿右	-0.03791831
-4.514869	阿幼朵	-0.03791831
-4.514869	阿语	-0.03791831
-4.514869	阿玉	-0.03791831
-4.514869	阿月	-0.03791831
-4.514869	阿扎	-0.03791831
-4.514869	阿扎伦卡	-0.03791831
-4.514869	阿珍妮	-0.03791831
-4.514869	阿振	-0.03791831
-4.514869	阿治曼	-0.03791831
-4.514869	阿忠	-0.03791831
-4.514869	阿舟	-0.03791831
-4.346582	阿朱	-0.03791831
-4.514869	阿兹	-0.03791831
-4.165472	阿紫	-0.0379183
-4.514869	阿紫酱	-0.03791831
-4.514869	阿左阿右	-0.03791831
-4.514869	阿佤人民唱新歌	-0.03791831
-4.514869	阿傩	-0.03791831
-4.514869	阿訇	-0.03791831
-4.514869	阿谀	-0.03791831
-4.514869	阿谀奉承	-0.03791831
-4.514869	阿芙	-0.03791831
-4.514869	阿咪	-0.03791831
-4.514869	阿咪果	-0.03791831
-4.514869	阿囡	-0.03791831
-4.514869	阿迦	-0.03791831
-4.514869	阿姊	-0.03791831
-4.346582	阿婷	-0.03791831
-4.514869	阿嬷的话	-0.03791831
-4.514869	阿尕什敖包乡	-0.03791831
-4.514869	阿珂	-0.03791831
-4.514869	阿z佛国经	-0.03791831
-4.514869	阿楠	-0.03791831
-4.514869	阿斐	-0.03791831
-4.514869	阿笠博士	-0.03791831
-4.514869	阿黛尔	-0.03791831
-4.514869	阿黛尔雨果的故事	-0.03791831
-4.514869	阿黛拉	-0.03791831
-4.514869	阿黛勒	-0.03791831
-4.165472	埃	-0.05669294
-4.023327	挨	-0.04026321
-4.514869	挨挨挤挤	-0.03791831
-4.514869	挨次	-0.03791831
-4.514869	挨打	-0.03791831
-4.514869	挨打专业户	-0.03791831
-4.346582	挨到	-0.03791831
-4.514869	挨的	-0.03791831
-4.514869	挨饿	-0.03791831
-4.514869	挨个	-0.03791831
-4.514869	挨户	-0.03791831
-4.514869	挨家挨户	-0.03791831
-4.514869	挨近	-0.03791831
-4.023327	挨骂	-0.07631603
-4.514869	挨骂了	-0.03791831
-4.514869	挨批	-0.03791831
-4.514869	挨说	-0.03791831
-4.514869	挨宰	-0.03791831
-4.514869	挨着	-0.03791831
-4.514869	挨揍	-0.03791831
-3.477747	哎	-0.04449005
-4.165472	哎哎	-0.0874054
-4.346582	哎哎哎	-0.08740539
-4.346582	哎顿	-0.05817134
-4.514869	哎哈	-0.03791831
-4.514869	哎拉	-0.03791831
-4.514869	哎妈呀	-0.03791831
-4.514869	哎去	-0.03791831
-4.514869	哎我去	-0.03791831
-4.346582	哎呀	-0.03791831
-3.830685	哎呀哎呀	-0.2434457
-4.165472	哎呀哎呀呀	-0.1075204
-4.346582	哎呀妈呀	-0.03791831
-4.514869	哎呀女朋友	-0.03791831
-4.514869	哎呀我去	-0.03791831
-4.165472	哎呀呀	-0.03791831
-4.514869	哎呀呀呀	-0.03791831
-4.514869	哎也	-0.03791831
-4.165472	哎哟	-0.03791831
-4.165472	哎哟哎哟	-0.09267896
-4.514869	哎哟不错哦	-0.03791831
-4.346582	哎哟喂	-0.06195737
-4.346582	哎哟哟	-0.1904466
-4.514869	哎呦哎呦	-0.03791831
-3.916411	唉	-0.2180975
-4.165472	唉唉	-0.1334421
-4.514869	唉唉唉	-0.03791831
-4.346582	哀	-0.03791831
-4.514869	哀哀	-0.03791831
-4.514869	哀悼	-0.03791831
-4.514869	癌拉	-0.03791831
-4.514869	癌拉出血热	-0.03791831
-4.514869	癌细胞	-0.03791831
-4.514869	矮	-0.03791831
-4.514869	矮子	-0.03791831
-4.346582	艾	-0.03791831
-4.514869	艾玛	-0.03791831
-4.023327	艾特	-0.03791831
-4.514869	艾滋病	-0.03791831
-4.514869	碍尼	-0.03791831
-4.514869	碍事	-0.03791831
-3.6439	爱	-0.1298286
-4.514869	爱爱	-0.03791831
-4.514869	爱爱爱	-0.03791831
-4.514869	爱吧	-0.03791831
-4.514869	爱的痛	-0.03791831
-4.514869	爱计较	-0.03791831
-4.514869	爱哭	-0.03791831
-4.023327	爱你	-0.2814026
-4.514869	爱你的人	-0.03791831
-4.514869	爱你呀	-0.03791831
-4.514869	爱你一辈子	-0.03791831
-4.514869	爱情	-0.03791831
-4.514869	爱人	-0.03791831
-4.514869	爱上	-0.03791831
-4.514869	爱上了	-0.03791831
-4.514869	爱上一个人	-0.03791831
-4.514869	爱谁	-0.03791831
-4.514869	爱死你	-0.03791831
-4.514869	爱死你了	-0.03791831
-4.514869	爱他	-0.03791831
-4.514869	爱玩	-0.03791831
-4.514869	爱我你怕了吗	-0.03791831
-4.514869	爱心	-0.03791831
-4.346582	爱着	-0.03791831
-4.346582	鞍	-0.03791831
-4.514869	鞍镑	-0.03791831
-4.514869	鞍法老	-0.03791831
-4.514869	鞍脚	-0.03791831
-4.514869	鞍人	-0.03791831
-4.514869	鞍神庙	-0.03791831
-4.514869	鞍神仙	-0.03791831
-4.514869	鞍王子	-0.03791831
-4.514869	鞍亚历山大	-0.03791831
-4.514869	鞍艳后	-0.03791831
-4.514869	鞍游	-0.03791831
-3.916411	安	-0.03791831
-4.514869	安安	-0.03791831
-4.514869	安德	-0.03791831
-4.514869	安东尼	-0.03791831
-4.514869	安格斯	-0.03791831
-4.514869	安静的	-0.03791831
-4.514869	安啦	-0.03791831
-4.514869	安了	-0.03791831
-4.514869	安眠药	-0.03791831
-4.165472	安全	-0.0379183
-4.514869	安全生产	-0.03791831
-4.514869	安生	-0.03791831
-4.514869	安徒生童话	-0.03791831
-4.514869	安慰我	-0.03791831
-4.514869	安西	-0.03791831
-4.514869	安心	-0.03791831
-4.514869	安置	-0.03791831
-3.759123	俺	-0.03791831
-4.514869	俺们	-0.03791831
-4.346582	按	-0.03791831
-4.514869	按尔	-0.03791831
-4.514869	按摩	-0.03791831
-4.514869	按照	-0.03791831
-4.514869	按捺	-0.03791831
-4.514869	暗藏	-0.03791831
-4.514869	暗恋	-0.03791831
-4.514869	暗恋我	-0.03791831
-4.514869	暗杀教室	-0.03791831
-4.514869	岸	-0.03791831
-4.165472	案	-0.1334421
-4.514869	肮库罗斯	-0.03791831
-4.514869	肮特	-0.03791831
-4.514869	肮特班	-0.03791831
-4.165472	昂	-0.03791831
-4.346582	昂昂	-0.1904466
-4.514869	昂纳德	-0.03791831
-4.514869	凹埃	-0.03791831
-4.514869	凹罗河	-0.03791831
-4.514869	熬	-0.03791831
-4.514869	熬了	-0.03791831
-4.514869	熬夜了	-0.03791831
-4.514869	傲	-0.03791831
-3.916411	奥	-0.1601056
-4.514869	奥巴马	-0.03791831
-4.514869	奥比纳	-0.0379183
-4.514869	奥迪	-0.03791831
-4.514869	奥尔	-0.0379183
-4.514869	奥尔曼	-0.03791831
-4.514869	奥曼	-0.03791831
-4.514869	奥蒙	-0.0379183
-4.514869	澳门	-0.03791831
-4.514869	澳斯	-0.03791831
-4.514869	澳特纳	-0.03791831
-4.514869	澳洲	-0.03791831
-4.514869	芭蕉叶	-0.03791831
-4.514869	捌尔	-0.03791831
-4.514869	捌尔铁塔	-0.03791831
-4.514869	扒菲亚德拉冰盖	-0.03791831
-4.165472	叭	-0.03791831
-4.514869	叭拉	-0.03791831
-2.848492	吧	-0.6967888
-4.514869	吧雷斯堡	-0.03791831
-4.514869	吧唧	-0.03791831
-3.759123	八	-0.03791832
-4.514869	八宝粥	-0.03791831
-4.514869	八莱斯顿	-0.03791831
-4.514869	八闽	-0.03791831
-4.514869	八塞特	-0.03791831
-4.514869	八天	-0.03791831
-4.514869	八托	-0.03791831
-3.830685	巴	-0.08305915
-4.514869	巴巴爸爸	-0.03791831
-4.514869	巴达赫尚省	-0.03791831
-4.514869	巴德	-0.03791831
-4.514869	巴迪	-0.03791831
-4.346582	巴蒂	-0.03791831
-4.514869	巴恩斯利	-0.03791831
-4.514869	巴格托格拉克乡	-0.03791831
-4.514869	巴克	-0.03791831
-4.514869	巴库拉	-0.03791831
-4.346582	巴黎	-0.03791831
-4.514869	巴洛特利	-0.03791831
-4.023327	巴萨	-0.03791831
-4.514869	巴神	-0.03791831
-4.514869	巴塔拉	-0.03791831
-4.514869	巴瓦	-0.03791831
-4.514869	巴西	-0.03791831
-4.514869	巴西队	-0.03791831
-4.514869	巴西龟	-0.03791831
-4.514869	巴扎	-0.03791831
-4.346582	拔	-0.0379183
-4.514869	拔头筹	-0.03791831
-4.514869	跋	-0.03791831
-4.514869	靶	-0.03791831
-4.346582	靶奥	-0.03791831
-3.204925	把	-0.04755195
-4.514869	把妹	-0.03791831
-4.514869	把那个	-0.03791831
-4.023327	把你	-0.03791831
-4.514869	把手机	-0.03791831
-4.346582	把他们	-0.03791831
-4.514869	把它	-0.03791831
-3.916411	把我	-0.03791831
-4.514869	把我当朋友	-0.03791831
-4.514869	把握	-0.03791831
-4.514869	把子	-0.03791831
-4.165472	把自己	-0.03791831
-4.514869	坝	-0.03791831
-4.514869	霸	-0.03791831
-4.514869	霸气	-0.03791831
-4.514869	罢	-0.0379183
-4.514869	罢工	-0.03791831
-4.514869	罢了	-0.03791831
-3.916411	爸	-0.03791831
-4.165472	爸爸	-0.03791831
-4.514869	爸爸妈妈	-0.03791831
-4.514869	爸妈	-0.03791831
-3.596035	白	-0.03791831
-4.514869	白大褂	-0.03791831
-4.346582	白富美	-0.03791831
-4.514869	白赫修神庙	-0.03791831
-4.514869	白虎	-0.03791831
-4.514869	白拉	-0.03791831
-4.514869	白猫黑猫	-0.03791831
-4.514869	白美富	-0.03791831
-4.514869	白皮书	-0.03791831
-4.514869	白勺	-0.03791831
-4.514869	白石	-0.03791831
-4.346582	白天	-0.03791831
-4.514869	白兔	-0.03791831
-4.514869	白问	-0.03791831
-4.514869	白音	-0.03791831
-4.514869	白玉	-0.03791831
-4.514869	白曰梦	-0.03791831
-4.514869	柏克	-0.03791831
-4.514869	柏林爱乐乐团	-0.03791831
-4.514869	柏纳火山	-0.03791831
-4.514869	柏芝	-0.03791831
-4.023327	百	-0.03791831
-4.346582	百毒不侵	-0.03791831
-4.346582	百度	-0.03791831
-4.514869	百度翻译	-0.03791831
-4.514869	百合	-0.03791831
-4.514869	百户	-0.03791831
-4.514869	百会	-0.03791831
-4.514869	百货	-0.03791831
-4.514869	百年	-0.03791831
-4.514869	百万	-0.03791831
-4.514869	百姓	-0.03791831
-4.514869	百元	-0.03791831
-4.514869	摆	-0.03791831
-4.514869	摆地摊	-0.03791831
-4.514869	摆动	-0.03791831
-4.514869	摆放	-0.03791831
-4.514869	摆烂	-0.03791831
-4.514869	败	-0.03791831
-4.514869	败家	-0.03791831
-4.514869	拜	-0.03791831
-4.514869	拜城县	-0.03791831
-4.514869	拜纳姆	-0.03791831
-4.023327	拜年	-0.2814026
-4.514869	拜年了	-0.03791831
-3.759123	拜仁	-0.1601056
-4.514869	拜师	-0.03791831
-4.514869	拜寿	-0.0379183
-4.514869	拜托了	-0.03791831
-4.514869	斑	-0.03791831
-3.916411	班	-0.03791831
-4.514869	班长	-0.03791831
-4.514869	班车	-0.03791831
-4.514869	班子	-0.03791831
-4.514869	搬	-0.03791831
-4.514869	搬奥	-0.03791831
-4.514869	搬迁	-0.03791831
-4.514869	扳平	-0.03791831
-4.346582	般	-0.1904466
-4.514869	颁	-0.03791831
-4.514869	板砖	-0.03791831
-4.346582	板子	-0.03791831
-3.513712	版	-0.1841561
-4.514869	版画	-0.03791831
-4.514869	伴侣	-0.03791831
-4.514869	伴你行	-0.03791831
-4.346582	半	-0.03791831
-4.514869	半岛	-0.03791831
-4.514869	半个月	-0.03791831
-4.514869	半截	-0.03791831
-4.514869	半决赛	-0.03791831
-4.346582	半年	-0.03791831
-4.165472	半天	-0.03791831
-4.514869	半天了	-0.03791831
-4.165472	半小时	-0.03791831
-4.346582	半夜	-0.03791831
-3.830685	办	-0.08305915
-4.514869	办到	-0.03791831
-4.514869	办的	-0.03791831
-4.346582	办法	-0.03791831
-4.514869	办了	-0.03791831
-4.514869	办事	-0.03791831
-4.514869	办证	-0.03791831
-4.514869	绊	-0.03791831
-4.346582	帮	-0.03791831
-4.514869	帮不上	-0.03791831
-4.514869	帮克	-0.03791831
-4.514869	帮克森	-0.03791831
-4.165472	帮你	-0.03791831
-4.514869	帮您	-0.03791831
-4.514869	帮上	-0.03791831
-4.514869	帮温	-0.03791831
-4.023327	帮助	-0.03791831
-4.346582	榜	-0.1904466
-4.514869	榜上有名	-0.03791831
-4.514869	膀拉	-0.03791831
-4.514869	膀诺	-0.03791831
-4.514869	绑架	-0.0379183
-4.346582	棒	-0.03791831
-4.514869	棒棒糖	-0.03791831
-4.514869	苞	-0.03791831
-4.514869	胞伯	-0.03791831
-4.514869	胞多安	-0.03791831
-4.514869	胞俄比亚	-0.03791831
-4.514869	胞俄比亚比尔	-0.03791831
-4.514869	胞俄比亚航空	-0.03791831
-4.514869	胞肛	-0.03791831
-4.514869	胞加	-0.03791831
-4.514869	胞克森	-0.03791831
-4.514869	胞克斯大学	-0.03791831
-4.514869	胞纳内斯	-0.03791831
-4.514869	胞南德斯	-0.03791831
-4.514869	胞斯	-0.03791831
-4.514869	胞斯戴攻略	-0.03791831
-4.346582	胞文	-0.03791831
-4.165472	包	-0.1334421
-4.023327	包包	-0.03791831
-4.514869	包的	-0.03791831
-4.514869	包含	-0.03791831
-4.514869	包豪斯	-0.03791831
-4.514869	_	-0.03791831
-4.514869	b	-0.03791831
-4.514869	h	-0.03791831
-4.346582	w	-0.03791831
-4.514869	薄荷	-0.03791831
-4.514869	薄荷糖	-0.03791831
-4.023327	保	-0.03791831
-4.165472	堡	-0.03791831
-4.514869	堡书	-0.03791831
-4.023327	饱	-0.03791831
-3.916411	宝	-0.03791831
-4.023327	宝宝	-0.1075204
-4.346582	宝贝	-0.0379183
-4.346582	宝贝儿	-0.03791831
-4.514869	宝贝女儿	-0.03791831
-4.514869	宝刀未老	-0.03791831
-4.514869	宝鸡	-0.03791831
-4.514869	宝洁	-0.03791831
-4.514869	宝龙	-0.03791831
-4.346582	宝马	-0.03791831
-4.514869	宝座	-0.03791831
-4.165472	抱	-0.03791831
-4.514869	抱到	-0.03791831
-4.346582	抱歉	-0.03791831
-4.514869	抱我	-0.03791831
-4.514869	抱枕被	-0.03791831
-4.514869	抱走	-0.03791831
-4.165472	报	-0.1334421
-4.023327	报道	-0.2814026
-4.514869	报复	-0.03791831
-4.023327	报告	-0.2814026
-4.514869	报价	-0.03791831
-4.514869	报上	-0.03791831
-4.514869	报账	-0.03791831
-4.165472	报纸	-0.03791831
-4.346582	暴	-0.03791831
-4.514869	暴跌	-0.03791831
-4.514869	暴力	-0.03791831
-4.514869	暴露	-0.03791831
-4.514869	暴涨	-0.03791831
-4.514869	暴政	-0.03791831
-4.514869	鲍姆	-0.03791831
-3.830685	爆	-0.0713265
-4.514869	爆粗	-0.03791831
-4.514869	爆发	-0.03791831
-4.514869	爆款	-0.03791831
-4.514869	爆笑	-0.03791831
-4.165472	爆炸	-0.03791831
-4.023327	杯	-0.03791831
-4.514869	杯具	-0.03791831
-4.514869	悲	-0.03791831
-4.165472	悲哀	-0.1334421
-4.165472	悲催	-0.1334421
-3.916411	悲剧	-0.251231
-4.514869	悲切	-0.03791831
-4.165472	悲伤	-0.4066887
-4.346582	卑	-0.1904466
-3.830685	北	-0.08305915
-4.514869	北村	-0.03791831
-4.514869	北大门	-0.03791831
-4.514869	北关街道	-0.03791831
-4.514869	北环线	-0.03791831
-3.916411	北京	-0.2205689
-4.514869	北京国安	-0.03791831
-4.346582	北京时间	-0.1904466
-4.514869	北京站	-0.03791831
-4.514869	北路	-0.03791831
-4.514869	北陆	-0.03791831
-4.514869	北漂	-0.03791831
-4.514869	北纬	-0.03791831
-4.346582	辈	-0.03791831
-3.916411	背	-0.08305915
-4.514869	背包	-0.03791831
-4.165472	背后	-0.03791831
-4.514869	背脊	-0.03791831
-4.514869	背景	-0.03791831
-4.514869	背书	-0.03791831
-4.514869	背影	-0.03791831
-4.346582	贝	-0.03791831
-4.346582	贝贝	-0.03791831
-4.346582	贝儿	-0.0379183
-4.514869	贝拉	-0.03791831
-4.514869	贝利	-0.03791831
-4.023327	倍	-0.09267896
-4.514869	倍儿爽	-0.03791831
-4.514869	倍增	-0.03791831
-4.346582	备	-0.03791831
-4.165472	焙	-0.03791831
-2.809747	被	-0.0626953
-4.514869	被逼	-0.03791831
-4.514869	被动	-0.03791831
-4.514869	被告	-0.03791831
-4.514869	被虐	-0.03791831
-4.514869	被骗	-0.03791831
-4.514869	被骗了	-0.03791831
-4.514869	被人	-0.03791831
-4.346582	被窝	-0.0379183
-4.165472	被我	-0.03791831
-4.514869	被现实打败	-0.03791831
-4.514869	被掩埋	-0.03791831
-4.346582	被抓	-0.03791831
-4.346582	被子	-0.03791831
-4.514869	奔	-0.03791831
-3.444535	本	-0.1248097
-4.514869	本部	-0.03791831
-4.346582	本地	-0.03791831
-4.514869	本都	-0.03791831
-4.514869	本宫	-0.03791831
-4.346582	本来	-0.0379183
-4.514869	本来说	-0.03791831
-4.514869	本轮	-0.03791831
-4.514869	本能	-0.03791831
-4.514869	本钱	-0.03791831
-4.514869	本人	-0.03791831
-4.514869	本色	-0.03791831
-4.514869	本事	-0.03791831
-4.514869	本性	-0.03791831
-4.346582	本月	-0.03791831
-4.514869	本质	-0.03791831
-4.514869	本周	-0.03791831
-4.514869	本子	-0.03791831
-3.830685	笨	-0.03791831
-4.346582	笨笨	-0.1904466
-4.165472	笨蛋	-0.03791831
-4.514869	笨了	-0.03791831
-4.514869	崩	-0.03791831
-4.514869	崩坏	-0.03791831
-4.165472	崩溃	-0.1334421
-4.514869	崩浪	-0.03791831
-4.514869	蹦	-0.03791831
-4.514869	蹦擦擦	-0.03791831
-3.830685	逼	-0.03791831
-4.514869	逼逼	-0.03791831
-4.346582	逼我	-0.03791831
-4.514869	逼着	-0.03791831
-4.514869	鼻屎	-0.03791831
-4.514869	鼻息	-0.03791831
-4.514869	鼻炎	-0.03791831
-3.223742	比	-0.09149134
-4.514869	比表面	-0.03791831
-4.514869	比别人	-0.03791831
-4.514869	比分	-0.03791831
-4.346582	比较	-0.03791831
-4.514869	比较好	-0.03791831
-4.514869	比利时巧克力	-0.03791831
-4.514869	比人	-0.03791831
-3.596035	比赛	-0.1402392
-4.346582	比他	-0.03791831
-4.514869	比他们	-0.03791831
-4.514869	比我	-0.03791831
-4.514869	比亚迪	-0.03791831
-4.514869	比在	-0.03791831
-4.514869	比自己	-0.03791831
-4.514869	比作	-0.03791831
-4.514869	鄙夷	-0.03791831
-4.165472	笔	-0.0379183
-4.514869	笔记	-0.03791831
-4.514869	彼此	-0.03791831
-4.514869	碧	-0.03791831
-4.514869	碧莲	-0.03791831
-4.514869	碧绿	-0.03791831
-4.514869	碧玺	-0.03791831
-4.514869	蓖	-0.03791831
-4.514869	毕	-0.03791831
-4.514869	毕竟	-0.03791831
-4.514869	毕竟是	-0.03791831
-4.514869	毕性住房	-0.03791831
-4.514869	毕业	-0.03791831
-4.023327	毙	-0.03791831
-4.346582	币	-0.0379183
-3.697701	庇	-0.0713265
-4.165472	庇我	-0.0379183
-4.346582	闭	-0.03791831
-4.514869	闭公司	-0.03791831
-4.514869	闭幕式	-0.03791831
-4.514869	闭塞	-0.03791831
-4.514869	闭上	-0.03791831
-4.514869	闭眼	-0.03791831
-4.514869	必	-0.03791831
-4.514869	必定	-0.03791831
-4.346582	必将	-0.03791831
-4.514869	必然	-0.03791831
-4.346582	必胜	-0.1334421
-3.916411	必须	-0.03791831
-4.514869	必须是	-0.03791831
-3.596035	边	-0.03791831
-4.514869	边伯贤	-0.0379183
-4.514869	边防	-0.03791831
-4.346582	边上	-0.0379183
-4.514869	边缘	-0.03791831
-4.165472	编	-0.03791831
-4.514869	编导	-0.03791831
-4.346582	编的	-0.03791831
-4.514869	编号	-0.03791831
-4.514869	编辑	-0.03791831
-4.514869	扁	-0.03791831
-4.514869	扁豆	-0.03791831
-4.346582	便	-0.03791831
-4.514869	便秘	-0.03791831
-4.514869	便是	-0.03791831
-4.346582	便宜	-0.1904466
-3.552926	变	-0.03791831
-3.916411	变成	-0.03791831
-4.346582	变成了	-0.03791831
-4.023327	变得	-0.03791831
-4.514869	变的	-0.03791831
-4.514869	变化	-0.03791831
-4.514869	变老	-0.03791831
-3.916411	变身	-0.03791831
-4.514869	变为	-0.03791831
-4.514869	变型	-0.03791831
-4.514869	辩	-0.03791831
-4.346582	辫子	-0.03791831
-4.346582	遍	-0.1904466
-4.514869	遍地	-0.03791832
-4.514869	遍体鳞伤	-0.03791831
-4.165472	标	-0.03791831
-4.514869	标配	-0.03791831
-4.514869	标题	-0.03791831
-4.346582	标志性建筑	-0.1904466
-4.514869	彪	-0.03791831
-4.514869	彪悍	-0.03791831
-4.514869	彪马	-0.03791831
-4.514869	膘	-0.03791831
-4.023327	表	-0.03791831
-4.165472	表白	-0.03791831
-4.514869	表达	-0.03791831
-4.514869	表弟	-0.03791831
-4.514869	表妹	-0.03791831
-4.514869	表面	-0.03791831
-4.023327	表情	-0.03791831
-3.285646	表示	-0.3712428
-4.023327	表现	-0.09267895
-4.346582	表演	-0.03791831
-4.514869	表彰	-0.03791831
-4.514869	憋屈	-0.03791831
-3.697701	别	-0.1428159
-4.165472	别的	-0.03791831
-4.514869	别克	-0.03791831
-4.514869	别来	-0.03791831
-4.514869	别摸我	-0.03791831
-4.514869	别怕	-0.03791831
-3.697701	别人	-0.07132649
-4.346582	别人的	-0.03791831
-4.514869	别生气	-0.03791831
-4.165472	别说	-0.1334421
-4.514869	别说了	-0.03791831
-4.514869	别太	-0.03791831
-4.514869	别用	-0.03791831
-4.514869	别再	-0.03791831
-4.346582	别在	-0.03791831
-4.514869	别这样	-0.03791831
-4.514869	别追我	-0.03791831
-4.514869	滨	-0.03791831
-4.514869	宾馆	-0.03791831
-4.514869	兵	-0.03791831
-4.514869	兵役	-0.03791831
-4.514869	冰	-0.03791831
-4.346582	冰冰	-0.03791831
-4.346582	冰川	-0.03791831
-4.514869	冰海	-0.03791831
-4.514869	冰雪	-0.03791831
-4.514869	冰雪世界	-0.03791831
-4.514869	冰镇	-0.03791831
-4.514869	冰淇	-0.03791831
-4.514869	秉	-0.03791831
-4.514869	秉正	-0.03791831
-4.346582	饼	-0.03791831
-4.165472	饼干	-0.03791831
-3.916411	病	-0.2205689
-4.514869	病床	-0.03791831
-4.514869	病从口入	-0.03791831
-4.514869	病毒	-0.03791831
-4.514869	病房	-0.03791831
-4.346582	病娇	-0.0379183
-4.165472	病了	-0.03791831
-4.514869	病痛	-0.03791831
-3.759123	并	-0.07631602
-4.165472	并不	-0.03791831
-4.346582	并不是	-0.0379183
-4.514869	并非	-0.03791831
-4.514869	并列	-0.03791831
-4.514869	并没有	-0.03791831
-4.514869	并且	-0.03791831
-4.514869	菠萝	-0.03791831
-4.514869	播	-0.03791831
-4.514869	拨	-0.03791831
-4.514869	钵	-0.03791831
-4.514869	钵盖	-0.03791831
-4.514869	钵屋	-0.03791831
-3.916411	波	-0.09267895
-4.514869	波动	-0.03791831
-4.514869	波特	-0.03791831
-4.165472	博	-0.03791831
-4.514869	博得	-0.03791831
-4.514869	博尔德	-0.03791831
-4.514869	博格坎普	-0.03791831
-4.514869	博特	-0.03791831
-4.165472	伯	-0.1334421
-4.514869	伯伯	-0.03791831
-4.514869	伯纳乌	-0.03791831
-4.514869	脖子	-0.03791831
-4.514869	膊	-0.03791831
-4.023327	驳	-0.03791831
-4.514869	捕捞	-0.03791831
-4.165472	卜	-0.03791831
-4.514869	卜卜	-0.03791831
-4.165472	补	-0.03791831
-4.346582	补偿	-0.03791831
-4.346582	补充	-0.03791831
-4.514869	补丁	-0.03791831
-4.514869	补上	-0.03791831
-4.346582	补贴	-0.03791831
-4.514869	补助	-0.03791831
-2.900067	不	-0.1168456
-4.514869	不啊	-0.03791831
-4.514869	不爱	-0.03791831
-4.514869	不办	-0.03791831
-4.514869	不包邮	-0.03791831
-4.514869	不便	-0.03791831
-4.514869	不变的	-0.03791831
-4.514869	不不	-0.03791831
-4.346582	不不不	-0.03791831
-4.346582	不超过	-0.1904466
-4.514869	不吃	-0.03791831
-4.514869	不出门	-0.03791831
-4.514869	不出去	-0.03791831
-4.514869	不存在	-0.03791831
-4.023327	不错	-0.5316274
-3.916411	不错啊	-0.6285375
-4.514869	不错哟	-0.03791831
-4.514869	不打算	-0.03791831
-4.514869	不大	-0.03791831
-4.346582	不带	-0.03791831
-4.514869	不当	-0.03791831
-3.916411	不到	-0.03791831
-4.023327	不得	-0.03791831
-4.514869	不得不承认	-0.03791831
-4.514869	不得了	-0.03791831
-4.514869	不等	-0.03791831
-4.514869	不定	-0.03791831
-3.830685	不懂	-0.03791831
-4.514869	不懂我	-0.03791831
-4.514869	不短	-0.0379183
-3.916411	不断	-0.03791831
-4.023327	不对	-0.1842843
-4.514869	不多	-0.03791831
-4.514869	不饿	-0.03791831
-4.514869	不放过	-0.03791831
-4.346582	不放假	-0.03791831
-4.514869	不放弃	-0.03791831
-4.514869	不放心	-0.03791831
-4.514869	不分	-0.03791831
-4.346582	不服	-0.1904466
-4.514869	不负	-0.03791831
-4.514869	不该	-0.03791831
-4.514869	不甘心	-0.03791831
-4.165472	不敢	-0.03791831
-4.514869	不敢苟同	-0.03791831
-4.514869	不敢了	-0.03791831
-4.514869	不告诉我	-0.03791831
-4.514869	不给	-0.03791831
-4.514869	不给力	-0.03791831
-4.346582	不给我	-0.03791831
-4.514869	不跟你	-0.03791831
-4.346582	不公平	-0.03791831
-4.514869	不够	-0.03791831
-4.514869	不够了	-0.03791831
-4.514869	不乖	-0.03791831
-4.514869	不怪	-0.03791831
-4.514869	不关	-0.0379183
-4.514869	不关注	-0.03791831
-4.514869	不管	-0.03791831
-3.830685	不过	-0.03791831
-4.514869	不过都是	-0.03791831
-4.346582	不过去	-0.1904466
-4.514869	不过去了	-0.03791831
-4.514869	不过是	-0.03791831
-4.514869	不过我	-0.03791831
-3.916411	不好	-0.2205689
-4.514869	不好的	-0.03791831
-4.165472	不好看	-0.4066887
-4.165472	不好了	-0.4066887
-4.514869	不好弄	-0.03791831
-4.346582	不好受	-0.1904466
-4.165472	不好意思	-0.03791831
-4.514869	不好走	-0.03791831
-4.514869	不喝	-0.03791831
-4.514869	不和	-0.03791831
-4.514869	不和谐	-0.03791831
-4.514869	不合理	-0.03791831
-4.514869	不合适	-0.03791831
-4.346582	不回家了	-0.1904466
-4.514869	不回来	-0.03791831
-3.596035	不会	-0.03791831
-4.514869	不会是	-0.03791831
-4.514869	不活	-0.03791831
-4.514869	不惑	-0.03791831
-4.514869	不急	-0.03791831
-4.514869	不记得	-0.03791831
-4.514869	不简单	-0.03791831
-4.346582	不减	-0.03791831
-4.514869	不见得	-0.03791831
-4.346582	不见了	-0.1334421
-4.514869	不讲理	-0.03791831
-4.514869	不解	-0.03791831
-4.514869	不仅	-0.03791831
-4.514869	不经意	-0.03791831
-4.514869	不久	-0.03791831
-4.514869	不就	-0.03791831
-4.346582	不就是	-0.03791831
-4.514869	不就是个	-0.03791831
-4.514869	不觉	-0.03791831
-4.023327	不开心	-0.1075204
-4.514869	不开心了	-0.03791831
-4.514869	不考虑	-0.03791831
-4.023327	不可	-0.03791831
-4.346582	不可能	-0.03791831
-4.514869	不可思议	-0.03791831
-4.346582	不可以	-0.03791831
-4.165472	不肯	-0.03791831
-4.514869	不快乐	-0.03791831
-4.514869	不愧	-0.03791831
-4.514869	不愧是	-0.03791831
-4.514869	不累	-0.03791831
-4.514869	不理	-0.03791831
-4.514869	不理不睬	-0.03791831
-4.346582	不理解	-0.03791831
-4.514869	不理我了	-0.03791831
-3.916411	不了	-0.2205689
-4.346582	不满	-0.03791831
-4.514869	不美	-0.03791831
-4.514869	不明	-0.03791831
-4.346582	不明白	-0.03791831
-4.514869	不那么	-0.03791831
-4.514869	不难	-0.03791831
-3.552926	不能	-0.03791831
-4.514869	不能呼吸	-0.03791831
-4.514869	不能让	-0.03791831
-4.346582	不能再	-0.03791831
-3.916411	不努力	-0.09267896
-4.165472	不怕	-0.03791831
-4.514869	不怕死	-0.03791831
-4.514869	不拍	-0.03791831
-4.165472	不配	-0.03791831
-4.165472	不起	-0.03791831
-4.514869	不弃	-0.03791831
-4.514869	不清楚	-0.03791831
-4.514869	不求	-0.03791831
-4.514869	不求人	-0.03791831
-4.514869	不屈不挠	-0.03791831
-4.514869	不去	-0.03791831
-4.514869	不缺	-0.03791831
-4.514869	不让	-0.03791831
-4.514869	不认	-0.03791831
-4.514869	不认识我	-0.03791831
-4.165472	不容易	-0.0379183
-4.165472	不如	-0.03791831
-4.023327	不上	-0.03791831
-4.023327	不少	-0.03791831
-4.514869	不舍得	-0.03791831
-3.552926	不是	-0.1049642
-4.514869	不是吃	-0.03791831
-4.514869	不是故意	-0.03791831
-4.514869	不是了	-0.03791831
-4.514869	不是说	-0.03791831
-4.514869	不是他	-0.03791832
-4.514869	不是我	-0.03791831
-4.514869	不是喜欢	-0.03791831
-4.514869	不是小孩	-0.03791831
-4.514869	不是要	-0.03791831
-4.514869	不是一个	-0.03791831
-4.514869	不适合	-0.03791831
-4.514869	不适应	-0.03791831
-4.165472	不舒服	-0.03791831
-4.165472	不爽	-0.4066887
-4.514869	不说	-0.03791831
-4.346582	不说了	-0.03791831
-4.346582	不死	-0.0379183
-4.346582	不太好	-0.03791831
-4.514869	不太坏	-0.03791831
-4.514869	不讨厌	-0.03791831
-4.514869	不听	-0.0379183
-4.023327	不停	-0.5316274
-4.165472	不同	-0.1334421
-4.514869	不痛快	-0.03791831
-4.514869	不湍	-0.03791831
-4.514869	不忘了	-0.03791831
-4.514869	不习惯	-0.03791831
-4.514869	不喜	-0.03791831
-3.916411	不喜欢	-0.03791831
-4.346582	不下去了	-0.03791831
-4.514869	不现实	-0.03791831
-4.514869	不相上下	-0.03791831
-3.916411	不想	-0.03791831
-4.346582	不想了	-0.03791831
-4.514869	不想起	-0.03791831
-4.514869	不想起床	-0.03791831
-4.346582	不想上	-0.1904466
-4.514869	不想上班	-0.03791831
-4.514869	不想睡	-0.03791831
-4.514869	不想说话	-0.03791831
-4.514869	不想要	-0.03791831
-4.514869	不想在	-0.03791831
-4.514869	不消	-0.03791831
-4.346582	不小	-0.03791831
-4.346582	不小心	-0.03791831
-4.346582	不孝	-0.03791831
-4.514869	不写了	-0.03791831
-4.514869	不信	-0.03791831
-4.023327	不行	-0.1075204
-4.514869	不行的	-0.03791831
-4.514869	不行啦	-0.03791831
-3.697701	不行了	-0.1428159
-4.514869	不行呀	-0.03791831
-4.514869	不醒	-0.03791831
-4.514869	不幸	-0.03791831
-4.514869	不需要	-0.03791831
-4.514869	不许	-0.03791831
-3.697701	不要	-0.03791831
-4.346582	不要啊	-0.03791831
-4.346582	不要脸	-0.1904466
-4.514869	不要脸的	-0.03791831
-4.514869	不要那么	-0.03791831
-4.514869	不要睡	-0.03791831
-4.514869	不要说	-0.03791831
-4.514869	不要太	-0.03791831
-4.514869	不要笑	-0.03791831
-4.165472	不要再	-0.03791831
-4.514869	不要在意	-0.03791831
-4.514869	不一	-0.03791831
-4.514869	不易	-0.03791831
-4.346582	不用	-0.03791831
-4.514869	不用的	-0.03791831
-4.514869	不用想太多	-0.03791831
-4.346582	不予置评	-0.1904466
-4.514869	不远	-0.03791831
-4.514869	不愿说	-0.03791831
-4.514869	不愿意	-0.03791831
-4.023327	不再	-0.03791831
-4.514869	不再是	-0.03791831
-4.514869	不再说	-0.03791831
-4.023327	不在	-0.2814026
-4.514869	不在身边	-0.03791831
-4.514869	不造	-0.03791831
-4.514869	不怎样	-0.03791831
-4.514869	不这样	-0.03791831
-4.514869	不正常	-0.03791831
-4.346582	不知不觉	-0.03791831
-3.759123	不知道	-0.03791831
-4.514869	不知道吧	-0.03791831
-4.514869	不知道你	-0.03791831
-4.514869	不知如何是好	-0.03791831
-4.514869	不知所措	-0.03791831
-4.514869	不知所谓	-0.03791831
-4.514869	不值	-0.03791831
-4.514869	不止	-0.03791831
-4.514869	不中	-0.03791831
-4.346582	不住	-0.03791831
-4.514869	不转	-0.03791831
-4.346582	不着	-0.03791831
-4.514869	不自量力	-0.03791831
-4.514869	不做	-0.03791831
-3.916411	布	-0.03791831
-4.514869	布江	-0.03791831
-4.023327	布局	-0.2814026
-4.346582	布拉	-0.1904466
-4.514869	布拉卡达	-0.03791831
-4.514869	布朗运动	-0.03791831
-4.514869	布里奇	-0.03791831
-4.514869	布宜诺斯艾利斯大学	-0.03791831
-4.023327	步	-0.1075204
-4.514869	步步为营	-0.03791831
-4.346582	步伐	-0.1334421
-4.346582	步行街	-0.03791831
-3.759123	部	-0.07132649
-4.514869	部电影	-0.03791831
-4.514869	部队	-0.03791831
-3.916411	部分	-0.09267896
-4.346582	部落	-0.1904466
-4.346582	部门	-0.03791831
-4.346582	部署	-0.03791831
-4.165472	擦	-0.09267896
-4.346582	擦擦	-0.1334421
-3.916411	擦擦擦	-0.2335477
-4.514869	擦亮眼睛	-0.03791831
-4.514869	猜不到	-0.03791831
-4.346582	裁	-0.03791831
-4.514869	裁缝	-0.03791831
-4.514869	裁判	-0.03791831
-3.552926	才	-0.1049642
-4.514869	才不会	-0.03791831
-4.514869	才出来	-0.03791831
-4.514869	才到	-0.03791831
-4.514869	才发	-0.03791831
-4.514869	才发现	-0.03791831
-4.514869	才好	-0.03791831
-4.514869	才华	-0.03791831
-4.514869	才会	-0.03791831
-4.514869	才觉得	-0.03791831
-4.514869	才可以	-0.03791831
-4.023327	才能	-0.03791831
-4.514869	才能到	-0.03791831
-4.023327	才是	-0.03791831
-4.514869	才算	-0.03791831
-4.165472	才有	-0.03791831
-4.514869	才知道	-0.03791831
-4.514869	才走	-0.03791831
-4.514869	财	-0.03791831
-4.514869	财付通	-0.03791831
-4.514869	财富	-0.03791831
-4.346582	财务	-0.03791831
-4.514869	财新	-0.03791831
-4.514869	财政	-0.03791831
-4.514869	财政部	-0.03791831
-4.346582	踩	-0.03791831
-4.346582	采访	-0.03791831
-4.514869	采集	-0.03791831
-4.514869	采取	-0.03791831
-4.346582	采用	-0.03791831
-4.346582	彩	-0.03791831
-3.830685	菜	-0.1842843
-4.514869	菜花	-0.03791831
-4.514869	菜鸟物流	-0.03791831
-4.514869	菜品	-0.03791831
-4.514869	菜市场	-0.03791831
-4.514869	蔡崇信	-0.03791831
-4.514869	蔡司	-0.03791831
-4.514869	蔡宜达	-0.03791831
-4.346582	餐	-0.03791831
-4.165472	餐厅	-0.4066887
-3.830685	参	-0.03791831
-4.514869	参观	-0.03791831
-3.759123	参加	-0.0379183
-4.514869	参加了	-0.03791831
-4.514869	参考	-0.03791831
-4.514869	参赛	-0.03791831
-4.023327	参与	-0.1075204
-4.514869	参赞	-0.03791831
-4.514869	残	-0.03791831
-4.514869	残念	-0.03791831
-4.514869	惭愧	-0.03791831
-4.023327	惨	-0.03791831
-4.514869	惨败	-0.03791831
-4.346582	惨了	-0.1904466
-4.514869	灿	-0.03791831
-4.514869	灿白	-0.03791831
-4.514869	灿烂	-0.03791831
-4.514869	苍老师	-0.03791831
-4.514869	舱	-0.0379183
-4.514869	沧桑	-0.03791831
-4.023327	藏	-0.1075204
-4.514869	藏茶	-0.03791831
-4.514869	藏南	-0.03791831
-4.346582	藏族	-0.03791831
-3.916411	操	-0.08305915
-4.346582	操了	-0.1904466
-4.346582	操我	-0.03791831
-4.514869	操作	-0.03791831
-3.830685	草	-0.03791831
-4.514869	草莓	-0.03791831
-4.023327	厕所	-0.03791831
-4.346582	策划	-0.03791831
-4.514869	策略	-0.03791831
-4.346582	侧	-0.03791831
-4.514869	测	-0.03791831
-4.514869	测评	-0.03791831
-4.514869	层	-0.03791831
-4.514869	蹭	-0.03791831
-4.514869	插画家	-0.03791831
-4.514869	叉	-0.03791831
-4.514869	叉叉	-0.03791831
-4.165472	茬	-0.03791831
-4.165472	茶	-0.1334421
-4.514869	茶厂	-0.03791831
-4.514869	茶馆	-0.03791831
-4.514869	茶话会	-0.03791831
-4.514869	茶叶蛋	-0.03791831
-4.514869	查	-0.03791831
-4.514869	查查	-0.03791831
-4.514869	查干湖	-0.03791831
-4.514869	查干淖尔	-0.03791831
-4.346582	查看	-0.03791831
-4.514869	搽	-0.03791831
-3.759123	差	-0.1075204
-4.514869	差别	-0.03791831
-4.514869	差不多	-0.03791831
-4.514869	差不多的	-0.03791831
-4.514869	差的	-0.03791831
-4.165472	差点	-0.03791831
-4.514869	差劲	-0.03791831
-4.514869	差距	-0.03791831
-4.346582	差了	-0.1904466
-4.514869	差遣	-0.03791831
-4.514869	拆迁	-0.03791831
-4.514869	谗	-0.03791831
-4.514869	缠着	-0.0379183
-4.165472	产	-0.03791831
-4.514869	产量	-0.03791831
-3.6439	产品	-0.2811186
-4.514869	产品展示	-0.03791831
-4.514869	产生	-0.03791831
-4.514869	产业	-0.03791831
-4.346582	产业带	-0.03791831
-4.514869	产业园	-0.03791831
-4.514869	阐述	-0.03791831
-4.346582	颤抖	-0.03791831
-4.514869		-0.0379183
-3.697701	场	-0.06195737
-4.514869	场地	-0.03791831
-4.346582	场景	-0.1904466
-4.514869	场所	-0.03791831
-4.346582	尝	-0.03791831
-4.346582	尝试	-0.03791831
-3.916411	常	-0.09267896
-3.596035	长	-0.06443612
-4.514869	长长	-0.03791831
-4.346582	长春	-0.03791831
-4.514869	长大	-0.03791831
-4.346582	长大了	-0.03791831
-4.346582	长得	-0.03791831
-4.514869	长得帅	-0.03791831
-4.514869	长得像	-0.03791831
-4.514869	长发及腰	-0.03791831
-4.514869	长裤	-0.03791831
-4.514869	长款	-0.03791831
-4.514869	长了	-0.03791831
-4.514869	长青	-0.03791831
-4.514869	长沙	-0.03791831
-4.514869	长时间	-0.03791831
-4.514869	长什么样	-0.03791831
-4.514869	长这么大	-0.03791831
-4.346582	厂	-0.03791831
-4.514869	厂家	-0.03791831
-4.514869	厂里	-0.03791831
-4.346582	畅	-0.1904466
-4.514869	畅畅	-0.03791831
-4.514869	畅通	-0.03791831
-3.916411	唱	-0.03791831
-4.346582	唱的	-0.1904466
-4.514869	唱段	-0.03791831
-4.514869	唱歌	-0.03791831
-4.514869	唱个	-0.03791831
-4.514869	唱过	-0.03791831
-4.514869	唱起了	-0.03791831
-4.514869	唱戏	-0.03791831
-3.513712	超	-0.09942297
-4.514869	超大	-0.03791831
-4.023327	超过	-0.1075204
-4.514869	超化	-0.03791831
-3.830685	超级	-0.03791831
-4.514869	超级巨星	-0.03791831
-4.514869	超可爱	-0.03791831
-4.514869	超生	-0.03791831
-4.346582	超越	-0.03791831
-4.514869	超重力	-0.03791831
-4.514869	抄完	-0.03791831
-4.514869	抄袭	-0.03791831
-3.6439	朝	-0.05817132
-4.514869	朝着	-0.03791831
-4.514869	嘲	-0.03791831
-3.6439	潮	-0.1666672
-4.514869	潮流	-0.03791831
-4.514869	潮品	-0.03791831
-4.514869	潮人	-0.03791831
-4.514869	吵	-0.03791831
-4.514869	吵到	-0.03791831
-4.514869	吵架了	-0.03791831
-4.514869	吵了	-0.03791831
-4.514869	吵闹	-0.03791831
-4.514869	吵我	-0.03791831
-4.346582	炒	-0.03791831
-4.514869	炒鸡	-0.03791831
-3.513712	车	-0.2547674
-4.514869	车队	-0.03791831
-4.514869	车号	-0.03791831
-4.514869	车祸	-0.03791831
-4.514869	车间	-0.03791831
-4.514869	车辆	-0.03791831
-4.514869	车品觉	-0.03791831
-4.514869	车上	-0.03791831
-4.514869	车型	-0.03791831
-4.514869	车展	-0.03791831
-4.514869	车子	-0.03791831
-4.165472	扯	-0.0379183
-4.514869	扯淡	-0.03791831
-4.514869	撤	-0.03791831
-4.514869	彻底	-0.03791831
-4.514869	臣	-0.03791831
-4.165472	尘	-0.1334421
-4.346582	尘世	-0.03791831
-4.514869	尘烟	-0.03791831
-3.916411	晨	-0.08305915
-4.514869	晨时	-0.03791831
-4.514869	沉	-0.03791831
-4.514869	沉沉	-0.03791831
-4.514869	沉静	-0.03791831
-4.514869	沉默的	-0.03791831
-4.514869	沉香	-0.03791831
-4.346582	陈	-0.03791831
-4.514869	陈思斯	-0.03791831
-4.514869	陈正	-0.03791831
-4.514869	衬衣	-0.03791831
-4.514869	撑	-0.03791831
-4.514869	撑不住	-0.03791831
-4.346582	撑死	-0.03791831
-3.513712	称	-0.2547674
-4.346582	称为	-0.0379183
-3.916411	城	-0.03791831
-4.514869	城堡	-0.03791831
-4.514869	城府	-0.03791831
-4.514869	城管	-0.03791831
-4.346582	城区	-0.03791831
-3.916411	城市	-0.09267896
-4.514869	城市管理局	-0.03791831
-4.514869	橙	-0.03791831
-3.477747	成	-0.1397263
-4.514869	成不	-0.03791831
-4.514869	成不了	-0.03791831
-4.165472	成长	-0.0379183
-4.346582	成都	-0.03791831
-4.514869	成都市	-0.03791831
-4.514869	成分	-0.03791831
-4.514869	成佛	-0.03791831
-3.513712	成功	-0.1780278
-4.514869	成功的	-0.03791831
-4.514869	成功了	-0.03791831
-4.514869	成绩	-0.03791831
-4.514869	成绩单	-0.03791831
-4.346582	成就	-0.03791831
-4.346582	成立	-0.03791831
-4.346582	成了	-0.03791831
-4.514869	成吗	-0.03791831
-4.514869	成年	-0.03791831
-4.514869	成品油	-0.03791831
-4.514869	成全你	-0.03791831
-4.514869	成日	-0.03791831
-4.346582	成熟	-0.03791831
-3.513712	成为	-0.05541572
-3.916411	成员	-0.2205689
-4.514869	成这样	-0.03791831
-4.514869	呈	-0.03791831
-4.514869	乘虚而入	-0.03791831
-4.514869	程	-0.03791831
-4.514869	程度	-0.03791831
-4.514869	程冠军	-0.03791831
-4.514869	程琳	-0.03791831
-4.514869	程仲军	-0.03791831
-4.514869	澄清	-0.03791831
-4.514869	诚实的孩子	-0.03791831
-4.514869	诚信通	-0.03791831
-4.165472	承	-0.03791831
-4.514869	承保	-0.03791831
-4.514869	承接	-0.03791831
-4.346582	承诺	-0.03791831
-4.514869	承受	-0.03791831
-4.514869	承受不起	-0.03791831
-3.596035	吃	-0.06195737
-4.514869	吃白食	-0.03791831
-4.514869	吃饱了	-0.03791831
-4.514869	吃不了	-0.03791831
-4.514869	吃吃	-0.03791831
-3.759123	吃的	-0.07631601
-4.514869	吃的了	-0.03791831
-3.916411	吃饭	-0.09267896
-4.514869	吃饭吃	-0.03791831
-4.514869	吃饭的	-0.03791831
-4.514869	吃饭了吧	-0.03791831
-4.514869	吃饭去了	-0.03791831
-4.514869	吃个够	-0.03791831
-4.346582	吃过	-0.03791831
-4.514869	吃好吃的	-0.03791831
-4.346582	吃货	-0.03791831
-4.346582	吃了	-0.03791831
-4.514869	吃了一口	-0.03791831
-4.514869	吃起来	-0.03791831
-4.514869	吃什么	-0.03791831
-4.514869	吃什么了	-0.03791831
-4.514869	吃屎	-0.03791831
-4.023327	吃完	-0.03791831
-4.514869	吃完了	-0.03791831
-4.514869	吃碗	-0.03791831
-4.514869	吃翔	-0.03791831
-4.514869	吃药	-0.03791831
-4.514869	吃粥	-0.03791831
-4.514869	吃着	-0.03791831
-4.514869	痴	-0.03791831
-4.346582	痴汉	-0.1334421
-4.514869	持	-0.03791831
-4.514869	持久	-0.03791831
-4.346582	持续	-0.0379183
-4.514869	迟	-0.03791831
-4.514869	迟到了	-0.03791831
-4.514869	尺	-0.03791831
-4.514869	赤	-0.03791831
-4.514869	充分	-0.03791831
-4.514869	充话费	-0.03791831
-4.514869	充实	-0.03791831
-4.514869	充裕	-0.03791831
-4.023327	冲	-0.03791831
-4.514869	冲刺	-0.03791831
-4.346582	冲动	-0.03791831
-4.514869	冲浪	-0.03791831
-4.514869	冲绳	-0.03791831
-4.514869	虫	-0.0379183
-4.514869	虫赛	-0.03791831
-4.346582	抽	-0.03791831
-4.514869	抽奖	-0.03791831
-4.514869	抽筋	-0.03791831
-4.514869	抽了	-0.03791831
-4.514869	畴起	-0.03791831
-4.346582	愁	-0.1904466
-4.514869	愁肠	-0.03791831
-4.514869	愁人	-0.03791831
-4.514869	筹	-0.03791831
-4.346582	筹备	-0.03791831
-4.514869	筹资	-0.03791831
-4.514869	仇富	-0.03791831
-4.514869	丑闻	-0.03791831
-4.346582	臭	-0.03791831
-3.916411	初	-0.03791831
-4.514869	初刻拍案惊奇	-0.03791831
-4.514869	初七	-0.03791831
-4.514869	初中的	-0.03791831
-4.514869	初衷	-0.03791831
-3.169572	出	-0.1330017
-4.514869	出版	-0.03791831
-4.514869	出榜	-0.03791831
-4.514869	出产	-0.03791831
-4.165472	出场	-0.0379183
-4.514869	出厂	-0.03791831
-4.514869	出厂价格	-0.03791831
-4.346582	出的	-0.03791831
-4.514869	出动	-0.03791831
-4.514869	出发了	-0.03791831
-4.514869	出国	-0.03791831
-4.514869	出国了	-0.03791831
-4.346582	出货	-0.1904466
-4.514869	出价	-0.03791831
-4.514869	出局	-0.03791831
-4.023327	出口	-0.2814026
-4.514869	出口国	-0.03791831
-3.830685	出来	-0.03791831
-4.514869	出来啊	-0.03791831
-4.023327	出来了	-0.5316274
-3.916411	出了	-0.09267896
-4.346582	出炉	-0.0379183
-4.514869	出没	-0.03791831
-4.165472	出门	-0.03791831
-4.514869	出门了	-0.03791831
-4.514869	出面	-0.03791831
-4.514869	出名	-0.03791831
-4.514869	出片	-0.03791831
-4.514869	出品	-0.03791831
-3.830685	出去	-0.03791831
-4.346582	出去了	-0.1904466
-4.514869	出去呢	-0.03791831
-4.514869	出入	-0.03791831
-4.514869	出身	-0.03791831
-4.165472	出生	-0.1334421
-4.346582	出事了	-0.03791831
-4.165472	出手	-0.03791831
-4.514869	出书	-0.03791831
-4.514869	出水	-0.03791831
-4.165472	出席	-0.1334421
-3.916411	出现	-0.1553544
-4.346582	出现了	-0.03791831
-4.514869	出现在	-0.03791831
-4.514869	出新	-0.03791831
-4.514869	出于	-0.03791831
-4.514869	出院	-0.03791831
-4.514869	出资	-0.03791831
-4.514869	厨	-0.03791831
-4.514869	厨房	-0.03791831
-4.514869	雏菊花	-0.03791831
-4.165472	除	-0.03791831
-3.697701	除了	-0.03791831
-4.514869	楚轩	-0.03791831
-4.514869		-0.03791831
-4.514869	储备	-0.03791831
-4.514869	储量	-0.03791831
-4.165472	触	-0.03791831
-3.697701	处	-0.1939684
-4.514869	处分	-0.03791831
-4.514869	处于	-0.03791831
-4.514869	处在	-0.03791831
-4.346582	处子	-0.1904466
-4.346582	处子球	-0.1904466
-4.514869	揣钱	-0.03791831
-4.514869	川	-0.03791831
-4.023327	穿	-0.03791831
-4.514869	穿的	-0.03791831
-4.514869	穿鞋	-0.03791831
-4.346582	穿越	-0.03791831
-4.514869	穿越时空	-0.03791831
-4.514869	穿针引线	-0.03791831
-4.165472	传	-0.0379183
-4.514869	传播	-0.03791831
-4.514869	传承	-0.03791831
-4.514869	传达	-0.03791831
-4.514869	传奇	-0.03791831
-4.514869	传球	-0.03791831
-4.514869	传授	-0.03791831
-4.346582	传说	-0.1904466
-4.346582	传统	-0.03791831
-4.346582	传闻	-0.03791831
-4.514869	传言	-0.03791831
-4.165472	船	-0.4066887
-4.514869	窗	-0.03791831
-4.514869	窗户	-0.03791831
-4.514869	窗口	-0.03791831
-4.514869	窗帘	-0.03791831
-4.514869	窗子	-0.03791831
-3.916411	床	-0.09267896
-4.514869	床边	-0.03791831
-4.346582	床单	-0.03791831
-4.514869	床铺	-0.03791831
-3.916411	床上	-0.03791831
-4.514869	床头	-0.03791831
-4.514869	床戏	-0.03791831
-4.346582	闯	-0.03791831
-3.830685	创	-0.08305915
-4.165472	创建	-0.03791831
-4.514869	创始人	-0.03791831
-4.514869	创新	-0.03791831
-4.514869	创业	-0.03791831
-4.514869	创造	-0.03791831
-4.023327	创作	-0.03791831
-4.514869	炊	-0.03791831
-4.514869	捶	-0.03791831
-4.514869	锤锤	-0.03791831
-4.514869	锤子	-0.03791831
-4.165472	春	-0.03791831
-4.346582	春耕	-0.03791831
-4.514869	春寒料峭	-0.03791831
-4.023327	春节	-0.09267896
-4.514869	春秋五霸战国七雄	-0.03791831
-4.514869	春日	-0.03791831
-4.514869	春色	-0.03791831
-4.165472	春天	-0.0379183
-4.514869	春天的	-0.03791831
-4.346582	春晚	-0.0379183
-4.346582	春雨	-0.03791831
-4.514869	春运	-0.03791831
-4.514869	椿	-0.03791831
-4.514869	淳	-0.03791831
-4.346582	纯	-0.03791831
-4.514869	纯纯	-0.03791831
-4.514869	纯的	-0.03791831
-4.514869	纯净	-0.03791831
-4.514869	纯文艺恋爱	-0.03791831
-4.514869	纯真	-0.03791831
-4.023327	蠢	-0.03791831
-4.514869	蠢笨	-0.03791831
-4.346582	蠢货	-0.1904466
-4.346582	戳	-0.03791831
-4.514869	疵	-0.03791831
-3.759123	茨	-0.1428159
-4.514869	磁性	-0.03791831
-4.514869	辞	-0.03791831
-4.514869	辞呈	-0.03791831
-4.514869	辞职	-0.03791831
-4.514869	慈悲	-0.03791831
-4.514869	慈善	-0.03791831
-4.165472	词	-0.03791831
-4.514869	词汇	-0.03791831
-3.830685	此	-0.03791831
-4.514869	此次	-0.03791831
-4.514869	此刻	-0.03791831
-4.514869	此事	-0.03791831
-4.514869	此外	-0.03791831
-4.514869	刺激的	-0.03791831
-3.697701	次	-0.03791831
-4.165472	次数	-0.03791831
-4.514869	聪明	-0.03791831
-4.346582	聪明了	-0.0379183
-4.514869	匆	-0.03791831
-4.514869	匆匆	-0.03791831
-3.243413	从	-0.04924939
-4.023327	从来	-0.03791831
-4.514869	从前	-0.03791831
-4.514869	从事	-0.03791831
-4.514869	从头做起	-0.03791831
-4.514869	从小	-0.03791831
-4.514869	从这	-0.03791831
-4.514869	凑合	-0.03791831
-4.514869	粗	-0.03791831
-4.514869	粗卡	-0.03791831
-4.514869	粗心大意	-0.03791831
-4.514869	促销	-0.03791831
-4.514869	蹿	-0.03791831
-4.346582	催	-0.03791831
-4.514869	催我	-0.03791831
-4.514869	催芽	-0.03791831
-4.514869	翠	-0.03791831
-3.477747	村	-0.1841561
-4.023327	村干部	-0.08305914
-4.514869	村官	-0.03791831
-4.514869	村两委	-0.03791831
-3.916411	村民	-0.03791831
-4.514869	村委	-0.03791831
-4.514869	村子	-0.03791831
-4.514869	存	-0.03791831
-4.514869	存托股	-0.03791831
-3.916411	存在	-0.07631601
-4.514869	搓	-0.03791831
-4.514869	措	-0.03791831
-4.165472	措施	-0.03791831
-4.023327	挫	-0.03791831
-3.916411	错	-0.2205689
-4.514869	错的	-0.03791831
-4.514869	错过	-0.03791831
-4.346582	错过了	-0.03791831
-4.514869	错觉	-0.03791831
-4.165472	错了	-0.4066887
-4.514869	错误	-0.03791831
-4.514869	错在	-0.03791831
-4.346582	搭	-0.03791831
-4.346582	搭建	-0.03791831
-4.346582	搭配	-0.03791831
-3.477747	达	-0.2127899
-4.165472	达成	-0.03791831
-4.346582	达到	-0.0379183
-4.514869	达坂城	-0.03791831
-4.023327	答	-0.1075204
-3.30841	打	-0.2273545
-4.514869	打啊	-0.03791831
-4.514869	打败我	-0.03791831
-4.514869	打包	-0.03791831
-4.514869	打本	-0.03791831
-4.514869	打不了	-0.03791831
-4.514869	打场	-0.03791831
-4.346582	打车	-0.0379183
-4.346582	打车软件	-0.0379183
-4.514869	打成一片	-0.03791831
-4.514869	打出	-0.03791831
-4.514869	打错	-0.03791831
-4.514869	打错了	-0.03791831
-4.514869	打倒	-0.03791831
-4.514869	打到	-0.03791831
-4.346582	打的	-0.03791831
-4.346582	打底衫	-0.03791831
-4.023327	打电话	-0.1075204
-4.514869	打电话给我	-0.03791831
-4.514869	打电话来	-0.03791831
-4.514869	打飞机	-0.03791832
-4.514869	打个	-0.03791831
-4.165472	打工	-0.03791831
-4.514869	打工苦	-0.03791831
-4.514869	打滑	-0.03791831
-4.514869	打回去	-0.03791832
-4.514869	打击	-0.03791831
-4.346582	打开	-0.0379183
-4.514869	打理	-0.03791831
-4.514869	打猎	-0.03791831
-4.514869	打牌	-0.03791831
-4.514869	打拼	-0.03791831
-4.346582	打破	-0.03791831
-4.346582	打球	-0.03791831
-4.346582	打人	-0.0379183
-4.514869	打入	-0.03791831
-4.514869	打扫	-0.03791831
-4.514869	打上	-0.03791831
-4.514869	打死我	-0.03791831
-4.346582	打算	-0.03791831
-4.346582	打我	-0.03791831
-4.514869	打一针	-0.03791831
-4.165472	打造	-0.03791831
-4.346582	打针	-0.03791831
-4.514869	打瞌睡	-0.03791831
-3.051402	大	-0.1556208
-4.514869	大吧	-0.03791831
-4.514869	大把	-0.03791831
-4.514869	大白兔	-0.03791831
-4.514869	大半年	-0.0379183
-4.346582	大半夜的	-0.03791831
-4.514869	大宝	-0.03791831
-4.514869	大爆发	-0.03791831
-4.514869	大北方	-0.03791831
-4.514869	大奔	-0.03791831
-4.514869	大辫子	-0.03791831
-4.346582	大餐	-0.1904466
-4.514869	大长脸	-0.03791831
-4.514869	大车	-0.03791831
-4.346582	大城市	-0.0379183
-4.514869	大错	-0.03791831
-3.916411	大大	-0.03791831
-4.514869	大胆	-0.03791831
-4.514869	大盗	-0.03791831
-4.346582	大的	-0.03791831
-4.514869	大点	-0.03791831
-4.514869	大豆	-0.03791831
-4.165472	大队	-0.1334421
-4.514869	大风	-0.03791831
-4.346582	大哥	-0.03791831
-4.514869	大工厂	-0.03791831
-4.514869	大姑	-0.03791831
-4.346582	大股东	-0.03791831
-4.514869	大号	-0.03791831
-4.514869	大花	-0.03791831
-4.346582	大会	-0.1904466
-4.346582	大婚	-0.1904466
-4.514869	大鸡吧	-0.03791831
-3.513712	大家	-0.03791831
-4.346582	大家都	-0.03791831
-4.514869	大间谍	-0.03791831
-4.346582	大叫	-0.0379183
-4.514869	大街上	-0.03791831
-4.514869	大结局	-0.03791831
-4.514869	大酒店	-0.03791831
-4.514869	大觉	-0.03791831
-4.514869	大开	-0.03791831
-4.514869	大坑	-0.03791831
-4.165472	大佬	-0.1334421
-4.514869	大礼	-0.03791831
-4.514869	大梁城	-0.03791831
-4.165472	大量	-0.03791831
-4.346582	大了	-0.1904466
-4.514869	大楼	-0.03791831
-4.346582	大陆	-0.03791831
-4.514869	大妈	-0.03791831
-4.514869	大满贯	-0.03791831
-4.514869	大门	-0.03791831
-4.514869	大门冲	-0.03791831
-4.514869	大梦	-0.03791831
-4.514869	大米	-0.03791831
-4.514869	大脑	-0.03791831
-4.514869	大你	-0.03791831
-4.514869	大年初一	-0.03791831
-4.514869	大年三十	-0.03791831
-4.514869	大排档	-0.03791831
-4.346582	大牌	-0.03791831
-4.514869	大盘	-0.03791831
-4.514869	大棚	-0.03791831
-4.165472	大鹏	-0.03791831
-4.346582	大区	-0.03791831
-4.514869	大人	-0.03791831
-4.346582	大赛	-0.0379183
-4.514869	大山	-0.03791831
-4.346582	大神	-0.03791831
-4.346582	大声	-0.03791831
-4.165472	大师	-0.09267896
-4.514869	大使	-0.03791831
-4.514869	大世面	-0.03791831
-4.514869	大事	-0.03791831
-4.514869	大寿	-0.03791831
-4.165472	大数据	-0.03791831
-4.346582	大厅	-0.03791831
-4.514869	大我	-0.0379183
-4.514869	大西洋	-0.03791831
-4.514869	大虾	-0.03791831
-4.514869	大小	-0.03791831
-4.514869	大笑	-0.03791831
-4.514869	大兴安岭	-0.03791831
-4.514869	大行	-0.03791831
-4.165472	大选	-0.0379183
-4.514869	大学	-0.03791831
-4.346582	大学的	-0.03791831
-4.514869	大学生	-0.03791831
-4.346582	大雪	-0.1904466
-4.346582	大爷	-0.0379183
-4.514869	大一	-0.03791831
-4.514869	大衣	-0.03791831
-4.514869	大勇	-0.03791831
-4.514869	大战	-0.03791831
-4.514869	大众	-0.03791831
-4.514869	大阪	-0.03791831
-4.165472	呆	-0.03791831
-4.514869	呆呆	-0.03791831
-4.514869	呆了	-0.03791831
-4.514869	呆在	-0.03791831
-4.165472	戴	-0.0379183
-4.346582	戴帽	-0.0379183
-4.514869	戴西	-0.03791831
-4.514869	戴眼镜	-0.03791831
-4.346582	带	-0.1904466
-4.514869	带不走	-0.03791831
-4.514869	带队	-0.03791831
-4.514869	带回	-0.03791831
-4.514869	带来	-0.03791831
-4.346582	带来的	-0.03791831
-4.165472	带领	-0.03791831
-4.514869	带路	-0.03791831
-4.346582	带你	-0.03791831
-4.514869	带上	-0.03791831
-4.514869	带她	-0.03791831
-4.514869	带我去	-0.03791831
-4.514869	带我去吃	-0.03791831
-4.514869	带有	-0.03791831
-3.916411	带着	-0.03791831
-4.346582	带走	-0.0379183
-4.514869	带走吧	-0.03791831
-4.514869	带走了	-0.03791831
-4.023327	代	-0.03791831
-3.759123	代表	-0.03791831
-4.346582	代表团	-0.03791831
-4.165472	代购	-0.1334421
-4.514869	代价	-0.03791831
-4.514869	代替	-0.03791831
-4.514869	代言人	-0.03791831
-4.346582	贷	-0.08305915
-4.346582	贷款	-0.0379183
-4.514869	袋	-0.03791831
-4.165472	待	-0.1334421
-4.514869	待产	-0.03791831
-4.514869	待会	-0.03791831
-4.514869	待我	-0.03791831
-4.514869	待遇	-0.03791831
-4.514869	担	-0.03791831
-4.514869	丹丹	-0.03791831
-4.346582	丹麦	-0.03791831
-3.697701	单	-0.03791831
-4.514869	单纯	-0.03791831
-4.514869	单身	-0.03791831
-4.514869	单身的	-0.03791831
-4.514869	单挑	-0.03791831
-3.916411	单位	-0.03791831
-4.514869	单招	-0.03791831
-4.346582	胆	-0.1334421
-4.514869	胆小鬼	-0.03791831
-4.514869	胆子	-0.03791831
-4.023327	但	-0.03791831
-4.514869	但就是	-0.03791831
-4.346582	但是	-0.03791831
-4.165472	淡定	-0.03791831
-4.514869	淡了	-0.03791831
-4.346582	弹	-0.03791831
-4.346582	弹性	-0.03791831
-3.830685	蛋	-0.03791831
-4.514869	蛋白	-0.03791831
-4.514869	蛋蛋	-0.03791831
-4.514869	蛋糕	-0.03791831
-4.346582	蛋糕店	-0.03791831
-4.514869	蛋花汤	-0.03791831
-4.346582	蛋疼	-0.1904466
-4.514869	蛋疼啊	-0.03791831
-3.384877	当	-0.06928854
-4.514869	当场	-0.03791831
-4.514869	当初	-0.03791831
-4.514869	当当	-0.03791831
-4.514869	当道	-0.03791831
-4.514869	当的	-0.03791831
-3.916411	当地	-0.03791831
-4.514869	当地时间	-0.03791831
-4.346582	当官	-0.1904466
-4.514869	当家人	-0.03791831
-4.514869	当妈	-0.03791831
-4.346582	当年	-0.03791831
-4.514869	当年的	-0.03791831
-4.514869	当朋友	-0.03791831
-4.514869	当然	-0.03791831
-4.514869	当然不是	-0.03791831
-4.514869	当人	-0.03791831
-4.514869	当时	-0.03791831
-4.514869	当天	-0.03791831
-4.514869	当我	-0.03791831
-4.514869	当之无愧	-0.03791831
-4.514869	当做	-0.03791831
-4.514869	当作	-0.03791831
-4.514869	挡	-0.03791831
-4.514869	挡着	-0.03791831
-4.514869	党	-0.03791831
-3.916411	党的群众路线	-0.3783126
-4.514869	党工委	-0.03791831
-4.346582	党委	-0.03791831
-4.023327	党员	-0.1075204
-4.514869	党组	-0.03791831
-4.346582	荡	-0.03791831
-4.346582	档	-0.0379183
-4.514869	档案局	-0.03791831
-3.759123	刀	-0.08305916
-4.514869	刀法	-0.03791831
-4.514869	刀具	-0.03791831
-4.514869	刀郎	-0.03791831
-4.514869	刀子	-0.0379183
-4.514869	捣蛋	-0.03791831
-4.514869	捣鼓	-0.03791831
-4.514869	捣腾	-0.03791831
-4.165472	倒	-0.03791831
-4.514869	倒闭	-0.03791831
-4.165472	倒霉	-0.03791831
-4.514869	倒霉了	-0.03791831
-4.514869	倒水	-0.03791831
-4.514869	倒腾	-0.03791831
-4.346582	倒在	-0.03791831
-4.165472	岛	-0.03791831
-4.514869	祷	-0.03791831
-4.514869	导	-0.03791831
-4.514869	导演	-0.03791831
-4.165472	导游	-0.03791831
-2.958604	到	-0.1109895
-4.514869	到啊	-0.03791831
-4.514869	到北京	-0.03791831
-4.514869	到场	-0.03791831
-3.759123	到底	-0.03791831
-4.023327	到底是	-0.03791831
-4.514869	到底是什么	-0.03791831
-4.514869	到后来	-0.03791831
-4.346582	到货	-0.1904466
-4.514869	到家	-0.03791831
-4.514869	到家了	-0.03791831
-4.514869	到啦	-0.03791831
-4.346582	到来	-0.1904466
-3.6439	到了	-0.1298286
-4.514869	到如今	-0.03791831
-4.514869	到头	-0.03791831
-4.514869	到位	-0.03791831
-4.514869	到我了	-0.03791831
-4.346582	到现在	-0.03791831
-4.514869	到这	-0.03791831
-4.514869	稻城	-0.03791831
-4.346582	悼	-0.03791831
-3.444535	道	-0.2658395
-4.514869	道德	-0.03791831
-4.514869	道德亩	-0.03791831
-4.514869	道路	-0.03791831
-4.346582	道歉	-0.03791831
-4.514869	道谢	-0.03791831
-4.514869	盗	-0.03791831
-3.444535	德	-0.1550264
-4.514869	德国	-0.03791831
-4.514869	德拉克斯勒	-0.03791831
-4.514869	德文	-0.03791831
-4.514869	德行	-0.03791831
-4.514869	德育处	-0.03791831
-3.026278	得	-0.09380061
-4.514869	得不得	-0.03791831
-4.514869	得出	-0.03791831
-4.165472	得到	-0.03791831
-4.346582	得到的	-0.03791831
-4.514869	得到了	-0.03791831
-4.346582	得得	-0.0379183
-4.514869	得分	-0.03791831
-4.514869	得很	-0.03791831
-4.514869	得奖	-0.03791831
-4.346582	得了	-0.03791831
-4.346582	得起	-0.03791831
-4.514869	得手	-0.03791831
-4.514869	得闲	-0.03791831
-4.514869	得要	-0.03791831
-4.346582	得知	-0.03791831
-1.737043	的	-0.1216472
-4.023327	的啊	-0.03791831
-4.346582	的爱情	-0.03791831
-4.165472	的吧	-0.1334421
-4.514869	的不	-0.03791831
-4.346582	的不是	-0.03791831
-4.514869	的场	-0.03791831
-4.165472	的车	-0.03791831
-4.165472	的地方	-0.4066887
-4.165472	的都是	-0.03791831
-4.514869	的多	-0.03791831
-4.023327	的感觉	-0.03791831
-4.023327	的歌	-0.03791831
-4.165472	的跟	-0.03791831
-4.346582	的故事	-0.1904466
-4.514869	的关系	-0.0379183
-4.514869	的孩子	-0.03791831
-4.514869	的好	-0.03791831
-4.514869	的号	-0.03791831
-3.697701	的话	-0.1075204
-4.514869	的还是	-0.03791831
-4.514869	的机会	-0.03791831
-4.023327	的节奏	-0.1904466
-4.514869	的就是	-0.03791831
-4.514869	的卡	-0.03791831
-4.514869	的看	-0.03791831
-4.023327	的了	-0.1075204
-4.514869	的路	-0.03791831
-4.514869	的嘛	-0.03791831
-4.023327	的吗	-0.2814026
-4.514869	的么	-0.03791831
-4.346582	的名字	-0.1904466
-4.346582	的那个	-0.03791831
-4.346582	的男人	-0.0379183
-4.514869	的呢	-0.03791831
-4.165472	的女人	-0.0379183
-4.514869	的哦	-0.03791831
-4.346582	的朋友	-0.03791831
-4.514869	的票	-0.03791831
-4.514869	的钱	-0.03791831
-4.514869	的去	-0.03791831
-3.916411	的确	-0.09267896
-4.514869	的确是	-0.03791831
-3.552926	的人	-0.1611041
-3.916411	的日子	-0.08305915
-4.023327	的声音	-0.09267896
-3.552926	的时候	-0.3564002
-4.514869	的时间	-0.03791831
-4.346582	的世界	-0.03791831
-3.697701	的事	-0.4246889
-3.759123	的事情	-0.03791831
-3.830685	的是	-0.03791831
-4.514869	的手机	-0.03791831
-4.165472	的书	-0.0379183
-4.165472	的说	-0.4066887
-4.514869	的天	-0.03791831
-4.346582	的娃	-0.1904466
-4.346582	的问题	-0.03791831
-3.830685	的我	-0.03791831
-3.830685	的心	-0.2997501
-4.514869	的呀	-0.03791831
-4.514869	的眼泪	-0.03791831
-3.759123	的样子	-0.07631601
-4.514869	的也是	-0.03791831
-4.346582	的衣服	-0.03791831
-4.346582	的意思	-0.1904466
-4.346582	的有	-0.0379183
-3.916411	的原因	-0.09267896
-4.346582	的照片	-0.1904466
-4.023327	灯	-0.1075204
-4.514869	灯牌	-0.03791831
-4.165472	登	-0.1075204
-4.514869	登记	-0.03791831
-4.514869	登陆	-0.03791831
-4.514869	登上	-0.03791831
-3.014241	等	-0.1972938
-4.514869	等吧	-0.03791831
-4.514869	等不了	-0.03791831
-4.514869	等待	-0.03791831
-4.514869	等待吧	-0.03791831
-4.514869	等到	-0.03791831
-4.514869	等到你	-0.03791831
-4.346582	等等	-0.03791831
-4.514869	等等我	-0.03791831
-4.514869	等哈	-0.03791831
-4.165472	等了	-0.03791831
-4.023327	等你	-0.03791831
-4.514869	等你来	-0.03791831
-4.346582	等人	-0.03791831
-4.514869	等他	-0.03791831
-3.916411	等我	-0.09267896
-4.514869	等一会	-0.03791831
-4.514869	等有	-0.03791831
-4.514869	等于	-0.03791831
-4.514869	等着你	-0.03791831
-4.514869	凳	-0.03791831
-4.514869	邓	-0.03791831
-4.346582	堤	-0.03791831
-3.916411	低	-0.2205689
-4.514869	低保	-0.03791831
-4.514869	低成本	-0.03791831
-4.514869	低估	-0.03791831
-4.514869	低价	-0.03791831
-3.332434	滴	-0.2488188
-4.514869	滴滴	-0.03791831
-4.165472	迪	-0.1075204
-4.514869	迪奥	-0.03791831
-4.023327	迪拜	-0.03791831
-4.514869	迪拜帆船酒店	-0.03791831
-4.514869	迪卡	-0.03791831
-4.514869	迪斯尼	-0.03791831
-4.346582	敌	-0.0379183
-4.514869	敌人	-0.03791831
-4.514869	笛	-0.03791831
-4.346582	狄	-0.03791831
-4.514869	狄彩	-0.03791831
-4.514869	狄生	-0.03791831
-4.514869	抵	-0.03791831
-3.916411	抵达	-0.09267896
-4.514869	抵押	-0.03791831
-4.346582	底	-0.03791831
-4.514869	底层	-0.03791831
-4.514869	底泥	-0.03791831
-2.938202	地	-0.1631659
-4.514869	地板	-0.03791831
-4.514869	地步	-0.03791831
-4.514869	地点	-0.03791831
-4.514869	地儿	-0.03791831
-4.346582	地方	-0.03791831
-4.346582	地方了	-0.1904466
-4.514869	地沟油	-0.03791831
-4.514869	地瓜叶	-0.03791831
-4.346582	地块	-0.03791831
-4.514869	地雷	-0.03791831
-4.514869	地理	-0.03791831
-4.514869	地力	-0.03791831
-4.346582	地球	-0.1904466
-4.023327	地区	-0.03791831
-4.514869	地去	-0.03791831
-4.165472	地上	-0.03791831
-4.514869	地铁	-0.03791831
-4.514869	地图	-0.03791831
-4.514869	地心引力	-0.03791831
-4.514869	地狱	-0.03791831
-4.514869	地址	-0.03791831
-4.514869	地州	-0.03791831
-4.165472	蒂	-0.0379183
-4.514869	蒂拉	-0.03791831
-4.514869	蒂特	-0.03791831
-4.514869	蒂亚	-0.03791831
-3.697701	第	-0.3603756
-4.023327	第二	-0.1904466
-4.023327	第二次	-0.03791831
-4.514869	第二封信	-0.03791831
-4.514869	第二个	-0.03791831
-4.514869	第二季	-0.03791831
-4.514869	第二天	-0.03791831
-4.514869	第二小学	-0.03791831
-4.165472	第三	-0.1334421
-4.514869	第三季	-0.03791831
-4.514869	第三张	-0.03791831
-4.514869	第十二	-0.03791831
-4.346582	第四	-0.03791831
-4.514869	第四小学	-0.03791831
-4.514869	第五季	-0.03791831
-4.514869	第五套人民币	-0.03791831
-3.916411	第一	-0.09267896
-3.916411	第一次	-0.03791831
-4.514869	第一次到	-0.03791831
-4.514869	第一次做的	-0.03791831
-4.514869	第一反应	-0.03791831
-4.514869	第一个	-0.03791831
-4.514869	第一季	-0.03791831
-4.514869	第一名	-0.03791831
-4.514869	第一年	-0.03791831
-4.514869	第一排	-0.03791831
-4.514869	第一生命	-0.03791831
-4.514869	第一天	-0.03791831
-4.514869	第一站	-0.03791831
-4.165472	帝	-0.03791831
-4.514869	帝星	-0.03791831
-4.346582	弟	-0.03791831
-4.514869	弟兄	-0.03791831
-4.514869	递	-0.03791831
-4.514869	递交	-0.03791831
-4.514869	缔造者	-0.03791831
-4.346582	颠	-0.03791831
-3.285646	点	-0.2255104
-4.514869	点不	-0.03791831
-4.514869	点点	-0.03791831
-4.346582	点儿	-0.03791831
-4.514869	点钱	-0.03791831
-4.346582	点球	-0.0379183
-4.514869	点射	-0.03791831
-4.514869	点赞	-0.03791831
-4.514869	垫江	-0.03791831
-4.346582	电	-0.1904466
-4.514869	电动车	-0.03791831
-4.023327	电话	-0.09267896
-4.514869	电话卡	-0.03791831
-4.514869	电话里	-0.03791831
-4.514869	电话吗	-0.03791831
-4.346582	电力	-0.03791831
-3.916411	电脑	-0.03791831
-4.514869	电气	-0.03791831
-4.514869	电褥子	-0.03791831
-4.514869	电扇	-0.03791831
-4.023327	电商	-0.03791831
-4.514869	电商平台	-0.03791831
-4.514869	电商圈	-0.03791831
-3.916411	电视	-0.09267895
-4.514869	电视电话会议	-0.03791831
-4.514869	电视看	-0.03791831
-4.514869	电视台	-0.03791831
-4.346582	电台	-0.03791831
-4.514869	电信业务	-0.03791831
-4.514869	电影	-0.03791831
-4.514869	电影梦	-0.03791831
-4.514869	电子	-0.03791831
-4.346582	电子商务	-0.03791831
-4.514869	电子商务平台	-0.03791831
-4.514869	甸	-0.0379183
-3.6439	店	-0.1939684
-4.514869	店长	-0.03791831
-4.514869	店家	-0.03791831
-4.514869	店里	-0.03791831
-4.514869	店面	-0.03791831
-4.514869	店主	-0.03791831
-4.514869	碉	-0.03791831
-4.514869	碉堡	-0.03791831
-4.514869	叼	-0.03791831
-4.346582	雕	-0.03791831
-4.514869	雕塑	-0.03791831
-4.514869	雕像	-0.03791831
-4.023327	掉	-0.03791831
-4.514869	掉包	-0.03791831
-4.023327	掉了	-0.2814026
-4.514869	吊坠	-0.03791831
-4.514869	钓鱼	-0.03791831
-4.514869	调皮	-0.03791831
-4.514869	调试	-0.03791831
-4.514869	调戏	-0.03791831
-4.346582	调戏我	-0.1904466
-4.346582	调研	-0.1904466
-4.165472	调整	-0.1334421
-4.165472	爹	-0.1334421
-4.346582	碟	-0.1904466
-4.346582	蝶	-0.03791831
-4.346582	e	-0.1904466
-4.346582	丁丁	-0.1904466
-4.346582	盯着	-0.03791831
-3.830685	顶	-0.1842843
-4.346582	顶顶	-0.1334421
-4.514869	顶你	-0.03791831
-4.514869	顶住	-0.03791831
-4.346582	鼎	-0.03791831
-4.023327	定	-0.1075204
-4.514869	定价	-0.03791831
-4.346582	定期	-0.03791831
-4.514869	定位	-0.03791831
-4.514869	定向	-0.03791831
-4.514869	定义	-0.03791831
-4.514869	订车	-0.03791831
-4.514869	订的	-0.03791831
-4.514869	订购	-0.03791831
-4.023327	丢	-0.03791831
-4.346582	丢了	-0.0379183
-4.514869	丢三落四	-0.03791831
-3.830685	东	-0.03791831
-4.165472	东北部	-0.1904466
-4.346582	东部	-0.03791831
-4.514869	东东	-0.03791831
-4.346582	东京	-0.1904466
-4.514869	东京热	-0.03791831
-4.514869	东坑	-0.03791831
-4.346582	东南	-0.03791831
-4.514869	东南风	-0.03791831
-4.514869	东山再起	-0.03791831
-4.514869	东升小学	-0.03791831
-4.514869	东市场	-0.03791831
-3.697701	东西	-0.0713265
-4.346582	东莞	-0.1904466
-4.514869	冬	-0.03791831
-4.514869	冬奥会	-0.03791832
-4.514869	冬季	-0.03791831
-4.346582	冬天	-0.03791831
-4.514869	冬闲	-0.03791831
-4.346582	董事局主席	-0.1904466
-4.514869	董小姐	-0.03791831
-4.023327	懂	-0.2205689
-4.514869	懂得	-0.03791831
-4.514869	懂事	-0.03791831
-3.759123	动	-0.1601056
-4.514869	动画	-0.03791831
-4.514869	动画片	-0.03791831
-4.346582	动了	-0.03791831
-4.514869	动乱	-0.03791831
-4.514869	动起来吧	-0.03791831
-4.514869	动手	-0.03791831
-4.514869	动态图	-0.03791831
-4.514869	动物	-0.03791831
-4.165472	动员	-0.1075204
-4.346582	动作	-0.1904466
-4.514869	栋	-0.03791831
-3.830685	冻	-0.1666672
-4.514869	冻得	-0.03791831
-4.346582	冻了	-0.1904466
-4.346582	冻死了	-0.1904466
-4.165472	洞	-0.03791829
-4.514869	洞洞	-0.03791831
-4.514869	洞穴	-0.03791831
-4.346582	兜	-0.03791831
-4.514869	抖	-0.03791831
-4.023327	斗	-0.03791831
-4.514869	豆	-0.03791831
-4.514869	豆豆	-0.03791831
-4.514869	豆腐脑	-0.03791831
-4.514869	豆腐渣工程	-0.03791831
-4.514869	豆浆	-0.03791831
-4.514869	豆渣	-0.03791831
-4.165472	逗	-0.1334421
-4.346582	逗逼	-0.03791831
-4.165472	逗比	-0.03791831
-4.514869	逗逗	-0.03791831
-2.848492	都	-0.04737484
-4.514869	都被	-0.03791831
-4.514869	都比我	-0.03791831
-4.514869	都不	-0.03791831
-4.514869	都不出来	-0.03791831
-4.514869	都不带	-0.03791831
-4.514869	都不得	-0.03791831
-4.514869	都不敢	-0.03791831
-4.346582	都不会	-0.03791831
-4.514869	都不理我	-0.03791831
-4.514869	都不能	-0.03791831
-4.514869	都不容易	-0.03791831
-4.514869	都不如	-0.03791831
-4.514869	都不是	-0.03791831
-4.514869	都不同	-0.03791831
-4.514869	都不想	-0.03791831
-4.514869	都不知道	-0.03791831
-4.514869	都得	-0.03791831
-4.514869	都多	-0.03791831
-4.514869	都敢	-0.03791831
-4.514869	都给	-0.03791831
-4.346582	都好	-0.0379183
-4.514869	都很	-0.03791831
-4.346582	都还	-0.03791831
-4.514869	都还没有	-0.03791831
-4.023327	都会	-0.03791831
-4.514869	都教授	-0.03791831
-4.514869	都看到	-0.03791831
-4.514869	都来	-0.03791831
-4.346582	都没	-0.03791831
-4.514869	都没买	-0.03791831
-4.514869	都没用	-0.03791831
-4.165472	都没有	-0.0379183
-4.165472	都能	-0.03791831
-4.514869	都跑了	-0.03791831
-4.514869	都让	-0.03791831
-4.514869	都让我	-0.03791831
-3.169572	都是	-0.03791831
-4.514869	都是些	-0.03791831
-4.514869	都睡	-0.03791831
-4.514869	都说是	-0.03791831
-4.514869	都太	-0.03791831
-4.514869	都听	-0.03791831
-4.514869	都玩	-0.03791831
-4.514869	都忘了	-0.03791831
-4.514869	都无所谓	-0.03791831
-4.514869	都想	-0.03791831
-4.514869	都学	-0.03791831
-4.165472	都要	-0.03791831
-4.514869	都一样	-0.03791831
-3.759123	都有	-0.07631601
-4.514869	都有了	-0.03791831
-4.514869	都有人	-0.03791831
-4.023327	都在	-0.03791831
-4.165472	都这么	-0.03791831
-4.514869	都知道	-0.03791831
-4.514869	都走	-0.03791831
-4.514869	督	-0.03791831
-4.514869	督导	-0.03791831
-3.916411	毒	-0.08305915
-4.514869	毒害	-0.03791831
-3.830685	独	-0.03791831
-4.346582	独家	-0.0379183
-4.165472	独立	-0.0379183
-4.514869	独善其身	-0.03791831
-4.514869	独树一帜	-0.03791831
-4.514869	独一无二	-0.03791831
-4.346582	独自	-0.03791831
-4.514869	读	-0.03791831
-4.514869	读了	-0.03791831
-4.514869	读书报告	-0.03791831
-4.514869	堵	-0.03791831
-4.514869	堵在	-0.03791831
-4.514869	赌	-0.03791831
-4.514869	赌场	-0.03791831
-4.346582	杜	-0.03791831
-4.514869	杜就一	-0.03791831
-4.514869	杜兰特	-0.03791831
-4.514869	杜瑞	-0.03791831
-4.514869	杜琪	-0.03791831
-4.514869	肚皮舞	-0.03791831
-4.346582	肚子	-0.03791831
-4.514869	肚子疼	-0.03791831
-4.346582	肚子痛	-0.1904466
-3.916411	度	-0.03791831
-4.346582	度过	-0.03791831
-4.514869	度假酒店	-0.03791831
-4.514869	度日如年	-0.03791831
-4.514869	渡	-0.03791831
-4.514869	渡槽	-0.03791831
-4.023327	端	-0.03791831
-4.514869	端口映射	-0.03791831
-4.514869	端午	-0.03791831
-4.514869	端午节	-0.03791831
-4.165472	短	-0.4066887
